{"learner":{"attributes":{"scikit_learn":"{\"_estimator_type\": \"classifier\"}"},"feature_names":[],"feature_types":[],"gradient_booster":{"model":{"gbtree_model_param":{"num_parallel_tree":"1","num_trees":"1500"},"iteration_indptr":[0,15,30,45,60,75,90,105,120,135,150,165,180,195,210,225,240,255,270,285,300,315,330,345,360,375,390,405,420,435,450,465,480,495,510,525,540,555,570,585,600,615,630,645,660,675,690,705,720,735,750,765,780,795,810,825,840,855,870,885,900,915,930,945,960,975,990,1005,1020,1035,1050,1065,1080,1095,1110,1125,1140,1155,1170,1185,1200,1215,1230,1245,1260,1275,1290,1305,1320,1335,1350,1365,1380,1395,1410,1425,1440,1455,1470,1485,1500],"tree_info":[0,1,2,3,4,5,6,7,8,9,10,11,12,13,14,0,1,2,3,4,5,6,7,8,9,10,11,12,13,14,0,1,2,3,4,5,6,7,8,9,10,11,12,13,14,0,1,2,3,4,5,6,7,8,9,10,11,12,13,14,0,1,2,3,4,5,6,7,8,9,10,11,12,13,14,0,1,2,3,4,5,6,7,8,9,10,11,12,13,14,0,1,2,3,4,5,6,7,8,9,10,11,12,13,14,0,1,2,3,4,5,6,7,8,9,10,11,12,13,14,0,1,2,3,4,5,6,7,8,9,10,11,12,13,14,0,1,2,3,4,5,6,7,8,9,10,11,12,13,14,0,1,2,3,4,5,6,7,8,9,10,11,12,13,14,0,1,2,3,4,5,6,7,8,9,10,11,12,13,14,0,1,2,3,4,5,6,7,8,9,10,11,12,13,14,0,1,2,3,4,5,6,7,8,9,10,11,12,13,14,0,1,2,3,4,5,6,7,8,9,10,11,12,13,14,0,1,2,3,4,5,6,7,8,9,10,11,12,13,14,0,1,2,3,4,5,6,7,8,9,10,11,12,13,14,0,1,2,3,4,5,6,7,8,9,10,11,12,13,14,0,1,2,3,4,5,6,7,8,9,10,11,12,13,14,0,1,2,3,4,5,6,7,8,9,10,11,12,13,14,0,1,2,3,4,5,6,7,8,9,10,11,12,13,14,0,1,2,3,4,5,6,7,8,9,10,11,12,13,14,0,1,2,3,4,5,6,7,8,9,10,11,12,13,14,0,1,2,3,4,5,6,7,8,9,10,11,12,13,14,0,1,2,3,4,5,6,7,8,9,10,11,12,13,14,0,1,2,3,4,5,6,7,8,9,10,11,12,13,14,0,1,2,3,4,5,6,7,8,9,10,11,12,13,14,0,1,2,3,4,5,6,7,8,9,10,11,12,13,14,0,1,2,3,4,5,6,7,8,9,10,11,12,13,14,0,1,2,3,4,5,6,7,8,9,10,11,12,13,14,0,1,2,3,4,5,6,7,8,9,10,11,12,13,14,0,1,2,3,4,5,6,7,8,9,10,11,12,13,14,0,1,2,3,4,5,6,7,8,9,10,11,12,13,14,0,1,2,3,4,5,6,7,8,9,10,11,12,13,14,0,1,2,3,4,5,6,7,8,9,10,11,12,13,14,0,1,2,3,4,5,6,7,8,9,10,11,12,13,14,0,1,2,3,4,5,6,7,8,9,10,11,12,13,14,0,1,2,3,4,5,6,7,8,9,10,11,12,13,14,0,1,2,3,4,5,6,7,8,9,10,11,12,13,14,0,1,2,3,4,5,6,7,8,9,10,11,12,13,14,0,1,2,3,4,5,6,7,8,9,10,11,12,13,14,0,1,2,3,4,5,6,7,8,9,10,11,12,13,14,0,1,2,3,4,5,6,7,8,9,10,11,12,13,14,0,1,2,3,4,5,6,7,8,9,10,11,12,13,14,0,1,2,3,4,5,6,7,8,9,10,11,12,13,14,0,1,2,3,4,5,6,7,8,9,10,11,12,13,14,0,1,2,3,4,5,6,7,8,9,10,11,12,13,14,0,1,2,3,4,5,6,7,8,9,10,11,12,13,14,0,1,2,3,4,5,6,7,8,9,10,11,12,13,14,0,1,2,3,4,5,6,7,8,9,10,11,12,13,14,0,1,2,3,4,5,6,7,8,9,10,11,12,13,14,0,1,2,3,4,5,6,7,8,9,10,11,12,13,14,0,1,2,3,4,5,6,7,8,9,10,11,12,13,14,0,1,2,3,4,5,6,7,8,9,10,11,12,13,14,0,1,2,3,4,5,6,7,8,9,10,11,12,13,14,0,1,2,3,4,5,6,7,8,9,10,11,12,13,14,0,1,2,3,4,5,6,7,8,9,10,11,12,13,14,0,1,2,3,4,5,6,7,8,9,10,11,12,13,14,0,1,2,3,4,5,6,7,8,9,10,11,12,13,14,0,1,2,3,4,5,6,7,8,9,10,11,12,13,14,0,1,2,3,4,5,6,7,8,9,10,11,12,13,14,0,1,2,3,4,5,6,7,8,9,10,11,12,13,14,0,1,2,3,4,5,6,7,8,9,10,11,12,13,14,0,1,2,3,4,5,6,7,8,9,10,11,12,13,14,0,1,2,3,4,5,6,7,8,9,10,11,12,13,14,0,1,2,3,4,5,6,7,8,9,10,11,12,13,14,0,1,2,3,4,5,6,7,8,9,10,11,12,13,14,0,1,2,3,4,5,6,7,8,9,10,11,12,13,14,0,1,2,3,4,5,6,7,8,9,10,11,12,13,14,0,1,2,3,4,5,6,7,8,9,10,11,12,13,14,0,1,2,3,4,5,6,7,8,9,10,11,12,13,14,0,1,2,3,4,5,6,7,8,9,10,11,12,13,14,0,1,2,3,4,5,6,7,8,9,10,11,12,13,14,0,1,2,3,4,5,6,7,8,9,10,11,12,13,14,0,1,2,3,4,5,6,7,8,9,10,11,12,13,14,0,1,2,3,4,5,6,7,8,9,10,11,12,13,14,0,1,2,3,4,5,6,7,8,9,10,11,12,13,14,0,1,2,3,4,5,6,7,8,9,10,11,12,13,14,0,1,2,3,4,5,6,7,8,9,10,11,12,13,14,0,1,2,3,4,5,6,7,8,9,10,11,12,13,14,0,1,2,3,4,5,6,7,8,9,10,11,12,13,14,0,1,2,3,4,5,6,7,8,9,10,11,12,13,14,0,1,2,3,4,5,6,7,8,9,10,11,12,13,14,0,1,2,3,4,5,6,7,8,9,10,11,12,13,14,0,1,2,3,4,5,6,7,8,9,10,11,12,13,14,0,1,2,3,4,5,6,7,8,9,10,11,12,13,14,0,1,2,3,4,5,6,7,8,9,10,11,12,13,14,0,1,2,3,4,5,6,7,8,9,10,11,12,13,14,0,1,2,3,4,5,6,7,8,9,10,11,12,13,14,0,1,2,3,4,5,6,7,8,9,10,11,12,13,14,0,1,2,3,4,5,6,7,8,9,10,11,12,13,14,0,1,2,3,4,5,6,7,8,9,10,11,12,13,14,0,1,2,3,4,5,6,7,8,9,10,11,12,13,14,0,1,2,3,4,5,6,7,8,9,10,11,12,13,14,0,1,2,3,4,5,6,7,8,9,10,11,12,13,14,0,1,2,3,4,5,6,7,8,9,10,11,12,13,14,0,1,2,3,4,5,6,7,8,9,10,11,12,13,14,0,1,2,3,4,5,6,7,8,9,10,11,12,13,14,0,1,2,3,4,5,6,7,8,9,10,11,12,13,14,0,1,2,3,4,5,6,7,8,9,10,11,12,13,14],"trees":[{"base_weights":[5.2616406E-2,-2.5015938E-1,5.2829742E0,-3.9669406E-1,3.3982053E0,7.0387397E0,-4.6594104E-1,4.176841E0,-4.5892954E-1,7.158706E0,-4.6608314E-1,2.229594E0,-1.3681428E-1,1.981132E-1,-1.5615141E-1,2.1211543E0,9.737383E-2,-5.123481E-1,3.839245E-1,3.1188118E-1,2.1870391E0,3.1188118E-1,-1.5746972E-1,1.0471698E0,-4.255658E-1,-5.2120334E-1,3.6544538E-1,5.18246E0,-4.7629058E-1,5.6603767E-2,-1.4818025E-1,5.9931982E-2,-1.577702E-1,1.2938089E0,-1.3841687E-1,-1.3203807E-1,1.9923664E0,6.226415E-1,-1.5466215E-1],"categories":[],"categories_nodes":[],"categories_segments":[],"categories_sizes":[],"default_left":[1,1,0,0,0,0,0,0,1,0,0,0,0,0,0,0,0,0,0,0,0,0,0,0,0,0,0,0,0,0,0,0,0,0,0,0,0,0,0],"id":0,"left_children":[1,3,5,7,9,11,13,15,17,19,21,-1,-1,-1,-1,-1,23,25,27,-1,-1,-1,-1,-1,29,31,33,35,37,-1,-1,-1,-1,-1,-1,-1,-1,-1,-1],"loss_changes":[4.379512E3,1.3990022E3,1.5307554E3,7.1757166E2,1.4718092E3,3.4523145E2,2.5771794E0,3.9893805E2,1.1192053E2,3.365674E1,5.0424824E0,0E0,0E0,0E0,0E0,0E0,2.8212399E1,1.8332458E1,6.1530505E2,0E0,0E0,0E0,0E0,0E0,6.786971E-1,7.931885E0,7.998562E1,1.8872583E2,1.3771147E1,0E0,0E0,0E0,0E0,0E0,0E0,0E0,0E0,0E0,0E0],"parents":[2147483647,0,0,1,1,2,2,3,3,4,4,5,5,6,6,7,7,8,8,9,9,10,10,16,16,17,17,18,18,24,24,25,25,26,26,27,27,28,28],"right_children":[2,4,6,8,10,12,14,16,18,20,22,-1,-1,-1,-1,-1,24,26,28,-1,-1,-1,-1,-1,30,32,34,36,38,-1,-1,-1,-1,-1,-1,-1,-1,-1,-1],"split_conditions":[6.617489E-1,9.066166E-1,-2.7925107E-1,-1.8496904E0,-2.3384668E-1,1.251987E-2,-1.7073591E0,-2.446864E-1,7.8787714E-1,7.1241766E-1,4.755959E-1,2.229594E0,-1.3681428E-1,1.981132E-1,-1.5615141E-1,2.1211543E0,-1.6352763E0,7.1223104E-1,-4.0430972E-1,3.1188118E-1,2.1870391E0,3.1188118E-1,-1.5746972E-1,1.0471698E0,-7.6787926E-2,-1.7516018E0,-7.1844906E-1,4.5291433E-1,-1.37337E0,5.6603767E-2,-1.4818025E-1,5.9931982E-2,-1.577702E-1,1.2938089E0,-1.3841687E-1,-1.3203807E-1,1.9923664E0,6.226415E-1,-1.5466215E-1],"split_indices":[105,115,3,40,3,1,7,3,115,88,69,0,0,0,0,0,18,84,3,0,0,0,0,0,3,40,6,87,5,0,0,0,0,0,0,0,0,0,0],"split_type":[0,0,0,0,0,0,0,0,0,0,0,0,0,0,0,0,0,0,0,0,0,0,0,0,0,0,0,0,0,0,0,0,0,0,0,0,0,0,0],"sum_hessian":[2.7636624E3,2.6133335E3,1.503289E2,2.5132803E3,1.00053345E2,1.1498668E2,3.5342224E1,3.2853336E1,2.4804268E3,5.027556E1,4.9777782E1,1.0926223E2,5.724445E0,1.1200001E0,3.4222225E1,1.8791113E1,1.4062223E1,2.3329602E3,1.4746667E2,1.2444446E0,4.9031116E1,1.2444446E0,4.8533337E1,1.1200001E0,1.2942224E1,2.3100625E3,2.289778E1,2.1653336E1,1.2581335E2,1.1200001E0,1.1822224E1,1.4684445E1,2.295378E3,3.235556E0,1.9662224E1,4.604445E0,1.7048891E1,1.1200001E0,1.24693344E2],"tree_param":{"num_deleted":"0","num_feature":"127","num_nodes":"39","size_leaf_vector":"1"}},{"base_weights":[2.693515E-2,-4.3097645E-1,4.6444664E0,-4.9480054E-1,9.8618877E-1,-5.0192475E-1,6.8189754E0,-5.108333E-1,1.8523488E0,5.7176633E0,-2.19847E-3,1.981132E-1,-1.5854025E-1,7.278477E0,-2.3357387E-1,-5.276887E-1,-4.27283E-2,-1.463705E-1,1.706788E0,2.1053984E0,-1.227702E-1,-1.5846843E-1,1.8419333E0,-1.23853214E-1,2.232343E0,-1.455271E-1,3.3962265E-1,-5.306463E-1,-3.1634104E-1,-4.767408E-1,3.9637716E0,-1.8871133E-1,4.8028765E0,-1.5996876E-1,-1.2122975E-1,4.4411415E-1,-1.5563053E-1,3.3962265E-1,-1.5463555E-1,1.8485329E0,-1.17717005E-1,-1.4652805E-1,3.3549434E-1,-1.0210697E-1,1.8636364E0],"categories":[],"categories_nodes":[],"categories_segments":[],"categories_sizes":[],"default_left":[0,0,0,0,0,0,0,0,0,0,0,0,0,0,0,0,0,0,0,0,0,0,0,0,0,0,0,0,0,0,0,0,0,0,0,0,0,0,0,0,0,0,0,0,0],"id":1,"left_children":[1,3,5,7,9,11,13,15,17,19,21,-1,-1,23,25,27,29,-1,-1,-1,-1,-1,31,-1,-1,-1,-1,33,35,37,39,41,43,-1,-1,-1,-1,-1,-1,-1,-1,-1,-1,-1,-1],"loss_changes":[5.8476626E3,2.2807166E2,2.7957197E3,9.15766E1,5.086735E2,2.6641579E0,5.703413E2,1.8856995E1,1.5143495E2,1.5261603E2,8.922327E1,0E0,0E0,2.0921777E2,4.568676E0,1.2757568E0,1.4839539E2,0E0,0E0,0E0,0E0,0E0,1.2364404E2,0E0,0E0,0E0,0E0,5.2856445E-1,1.3261666E1,5.3734684E0,8.229346E1,5.666638E0,6.257939E1,0E0,0E0,0E0,0E0,0E0,0E0,0E0,0E0,0E0,0E0,0E0,0E0],"parents":[2147483647,0,0,1,1,2,2,3,3,4,4,5,5,6,6,7,7,8,8,9,9,10,10,13,13,14,14,15,15,16,16,22,22,27,27,28,28,29,29,30,30,31,31,32,32],"right_children":[2,4,6,8,10,12,14,16,18,20,22,-1,-1,24,26,28,30,-1,-1,-1,-1,-1,32,-1,-1,-1,-1,34,36,38,40,42,44,-1,-1,-1,-1,-1,-1,-1,-1,-1,-1,-1,-1],"split_conditions":[1.2488035E0,1.0121596E0,5.541281E-1,7.258724E-1,-9.7815734E-1,-8.5886765E-1,7.8317696E-1,5.9120923E-1,-1.15817286E-1,5.512211E-1,7.0731956E-1,1.981132E-1,-1.5854025E-1,5.485821E-1,2.0415273E-1,5.854275E-1,7.743466E-1,-1.463705E-1,1.706788E0,2.1053984E0,-1.227702E-1,-1.5846843E-1,5.831498E-1,-1.23853214E-1,2.232343E0,-1.455271E-1,3.3962265E-1,1.2405411E0,5.434322E-1,-1.1810029E0,5.434322E-1,7.924787E-1,3.7013975E-1,-1.5996876E-1,-1.2122975E-1,4.4411415E-1,-1.5563053E-1,3.3962265E-1,-1.5463555E-1,1.8485329E0,-1.17717005E-1,-1.4652805E-1,3.3549434E-1,-1.0210697E-1,1.8636364E0],"split_indices":[9,9,64,84,1,1,124,69,6,112,64,0,0,72,3,69,9,0,0,0,0,0,72,0,0,0,0,18,66,44,66,5,89,0,0,0,0,0,0,0,0,0,0,0,0],"split_type":[0,0,0,0,0,0,0,0,0,0,0,0,0,0,0,0,0,0,0,0,0,0,0,0,0,0,0,0,0,0,0,0,0,0,0,0,0,0,0,0,0,0,0,0,0],"sum_hessian":[2.7636624E3,2.515147E3,2.4851558E2,2.407378E3,1.077689E2,7.404445E1,1.7447113E2,2.3918225E3,1.5555557E1,1.7795557E1,8.997334E1,1.1200001E0,7.292445E1,1.637689E2,1.0702223E1,2.308569E3,8.325334E1,1.0204445E1,5.3511114E0,1.4560001E1,3.235556E0,7.0560005E1,1.9413336E1,3.3600004E0,1.604089E2,9.582223E0,1.1200001E0,2.275218E3,3.3351112E1,7.591112E1,7.3422227E0,1.2071112E1,7.3422227E0,2.2265603E3,4.8657784E1,2.737778E0,3.0613337E1,1.1200001E0,7.4791115E1,4.604445E0,2.737778E0,1.032889E1,1.7422223E0,1.7422223E0,5.6000004E0],"tree_param":{"num_deleted":"0","num_feature":"127","num_nodes":"45","size_leaf_vector":"1"}},{"base_weights":[3.8871508E-2,1.9899937E0,-1.6063908E-1,5.8290076E0,9.275009E-1,7.1408014E0,-4.727637E-1,7.019994E-2,3.3468087E0,3.797468E-1,2.1940343E0,-1.5380944E-1,5.6603767E-2,3.934461E0,-2.8682283E-1,5.320624E0,2.1949303E-1,-1.0210697E-1,3.3962265E-1,6.032713E0,-3.0940104E-1,6.578165E-1,-4.5994714E-1,7.174132E-1,6.1483564E0,1.6292133E0,-1.560187E-1,-1.0210697E-1,1.9900815E0,1.981132E-1,-1.4477745E-1,1.2382957E0,-1.4925374E-1,-1.5438974E-1,5.8269564E-2,1.3200972E0,-6.810245E-2,1.3692217E-1,2.028827E0,-5.459273E-2,1.5724907E0],"categories":[],"categories_nodes":[],"categories_segments":[],"categories_sizes":[],"default_left":[0,0,0,0,0,0,0,0,0,0,0,0,0,0,0,0,0,0,0,0,0,0,0,0,0,0,0,0,0,0,0,0,0,0,0,0,0,0,0,0,0],"id":2,"left_children":[1,3,-1,5,7,9,11,13,15,17,-1,-1,-1,19,21,23,25,-1,-1,27,29,31,33,35,37,39,-1,-1,-1,-1,-1,-1,-1,-1,-1,-1,-1,-1,-1,-1,-1],"loss_changes":[3.0991404E3,2.5600193E3,0E0,1.1288496E3,1.0239431E3,1.2883398E2,7.4112797E-1,5.0555167E2,7.962136E2,2.477685E0,0E0,0E0,0E0,2.778328E2,5.5191696E1,2.971731E2,5.404598E1,0E0,0E0,8.186096E1,2.2005496E0,2.1209694E2,1.0268188E1,4.6895954E1,2.3106567E2,1.1741531E2,0E0,0E0,0E0,0E0,0E0,0E0,0E0,0E0,0E0,0E0,0E0,0E0,0E0,0E0,0E0],"parents":[2147483647,0,0,1,1,3,3,4,4,5,5,6,6,7,7,8,8,9,9,13,13,14,14,15,15,16,16,19,19,20,20,21,21,22,22,23,23,24,24,25,25],"right_children":[2,4,-1,6,8,10,12,14,16,18,-1,-1,-1,20,22,24,26,-1,-1,28,30,32,34,36,38,40,-1,-1,-1,-1,-1,-1,-1,-1,-1,-1,-1,-1,-1,-1,-1],"split_conditions":[5.434334E-1,-1.216307E0,-1.6063908E-1,5.5247027E-1,-6.9047856E-1,1.64076E-2,1.3923442E0,-9.1040313E-1,1.0948239E-1,1.245711E0,2.1940343E0,-1.5380944E-1,5.6603767E-2,6.749996E-1,-6.513431E-2,-6.7434317E-1,4.664153E-1,-1.0210697E-1,3.3962265E-1,-1.6226133E0,-2.97028E-1,1.1709352E-1,-7.846569E-1,-9.786763E-1,-5.720145E-1,5.71087E-1,-1.560187E-1,-1.0210697E-1,1.9900815E0,1.981132E-1,-1.4477745E-1,1.2382957E0,-1.4925374E-1,-1.5438974E-1,5.8269564E-2,1.3200972E0,-6.810245E-2,1.3692217E-1,2.028827E0,-5.459273E-2,1.5724907E0],"split_indices":[0,3,0,57,26,51,49,20,54,1,0,0,0,60,29,18,54,0,0,26,1,1,26,54,13,18,0,0,0,0,0,0,0,0,0,0,0,0,0,0,0],"split_type":[0,0,0,0,0,0,0,0,0,0,0,0,0,0,0,0,0,0,0,0,0,0,0,0,0,0,0,0,0,0,0,0,0,0,0,0,0,0,0,0,0],"sum_hessian":[2.7636624E3,6.279467E2,2.1357158E3,1.3514668E2,4.9280005E2,1.1175112E2,2.3395557E1,3.6462225E2,1.281778E2,2.8622224E0,1.088889E2,2.2275557E1,1.1200001E0,2.9991114E1,3.3463113E2,7.8151115E1,5.0026672E1,1.7422223E0,1.1200001E0,1.9786669E1,1.0204445E1,5.139556E1,2.8323557E2,1.2195557E1,6.595556E1,1.6800001E1,3.322667E1,1.7422223E0,1.8044445E1,1.1200001E0,9.084445E0,1.2195557E1,3.9200005E1,2.6158224E2,2.1653336E1,1.7422223E0,1.0453334E1,6.5955563E0,5.9360004E1,1.1822224E1,4.9777784E0],"tree_param":{"num_deleted":"0","num_feature":"127","num_nodes":"41","size_leaf_vector":"1"}},{"base_weights":[3.236077E-2,1.7395543E0,-2.4761273E-1,-1.443963E-1,5.45302E0,-5.2100945E-1,2.4883027E-1,-3.4976646E-1,4.9042225E0,2.2270565E0,-3.733872E-1,-5.29261E-1,-2.9348603E-1,-3.8395768E-1,1.7091414E0,-4.689559E-1,1.1646297E0,-1.1294584E-1,1.9631728E0,-1.5584153E-1,6.226415E-1,-1.6060126E-1,-3.6768737E-1,1.2475247E0,-4.7099975E-1,6.5296245E-1,-4.899269E-1,6.586901E0,-4.875141E-1,-4.984982E-1,1.1926605E0,-1.4977308E-1,1.7868252E0,1.1886792E0,-1.5782535E-1,-5.070177E-1,1.981132E-1,-4.104215E-1,4.5295644E0,-5.3063804E-1,6.784904E-2,2.218448E0,-1.4303179E-1,-5.2684915E-1,1.0155535E0,-1.2715137E-2,-1.5995994E-1,9.0566033E-1,-1.1111111E-1,5.6603767E-2,-1.5764697E-1,-1.5698215E-1,6.226415E-1,1.984252E0,-1.2487612E-1,2.4064168E-2,-1.597892E-1,1.1316907E0,-1.5585984E-1,5.6603767E-2,-1.597805E-1,-1.17717005E-1,9.0566033E-1],"categories":[],"categories_nodes":[],"categories_segments":[],"categories_sizes":[],"default_left":[0,0,0,0,0,0,0,0,0,0,0,0,0,0,0,0,0,0,0,0,0,0,0,0,0,0,0,0,0,0,0,0,0,0,0,0,0,0,0,0,0,0,0,0,0,0,0,0,0,0,0,0,0,0,0,0,0,0,0,0,0,0,0],"id":3,"left_children":[1,3,5,7,9,11,13,15,17,-1,19,21,23,25,27,29,31,-1,-1,-1,-1,-1,33,-1,35,37,39,41,43,45,47,-1,-1,-1,-1,49,-1,51,53,55,57,-1,-1,59,61,-1,-1,-1,-1,-1,-1,-1,-1,-1,-1,-1,-1,-1,-1,-1,-1,-1,-1],"loss_changes":[1.3218535E3,2.7267036E3,3.2261737E2,2.7074426E2,1.5087141E3,2.7218933E0,7.810168E2,4.57185E1,9.085945E1,0E0,1.3277897E1,1.2539978E0,4.6119102E1,6.514959E1,2.740713E3,1.2018074E1,1.5083447E2,0E0,0E0,0E0,0E0,0E0,4.1007347E1,0E0,2.5612135E0,2.2913608E2,1.2204178E1,4.5665503E2,1.1005112E1,3.607624E0,1.3563363E1,0E0,0E0,0E0,0E0,7.8687954E-1,0E0,1.3480869E1,1.2597026E2,6.507721E-1,8.320418E1,0E0,0E0,8.135185E-1,1.4886196E1,0E0,0E0,0E0,0E0,0E0,0E0,0E0,0E0,0E0,0E0,0E0,0E0,0E0,0E0,0E0,0E0,0E0,0E0],"parents":[2147483647,0,0,1,1,2,2,3,3,4,4,5,5,6,6,7,7,8,8,10,10,11,11,12,12,13,13,14,14,15,15,16,16,22,22,24,24,25,25,26,26,27,27,28,28,29,29,30,30,35,35,37,37,38,38,39,39,40,40,43,43,44,44],"right_children":[2,4,6,8,10,12,14,16,18,-1,20,22,24,26,28,30,32,-1,-1,-1,-1,-1,34,-1,36,38,40,42,44,46,48,-1,-1,-1,-1,50,-1,52,54,56,58,-1,-1,60,62,-1,-1,-1,-1,-1,-1,-1,-1,-1,-1,-1,-1,-1,-1,-1,-1,-1,-1],"split_conditions":[-9.565431E-1,4.7540182E-1,5.996676E-1,7.7481717E-1,2.9421002E-1,5.7611054E-1,7.3668435E-3,4.2594135E-1,-9.8568726E-1,2.2270565E0,8.232044E-1,9.204253E-1,-8.817035E-1,-8.318067E-1,5.5463874E-1,6.7400235E-1,5.4343265E-1,-1.1294584E-1,1.9631728E0,-1.5584153E-1,6.226415E-1,-1.6060126E-1,-9.1504264E-1,1.2475247E0,8.991991E-1,-8.009177E-1,7.627747E-1,4.4167122E-1,1.4045473E0,-1.3775526E0,-2.869262E-1,-1.4977308E-1,1.7868252E0,1.1886792E0,-1.5782535E-1,-1.6479399E0,1.981132E-1,4.4045478E-1,4.4512057E-1,1.5483281E-3,3.486868E-1,2.218448E0,-1.4303179E-1,-2.2411409E-1,5.437625E-1,-1.2715137E-2,-1.5995994E-1,9.0566033E-1,-1.1111111E-1,5.6603767E-2,-1.5764697E-1,-1.5698215E-1,6.226415E-1,1.984252E0,-1.2487612E-1,2.4064168E-2,-1.597892E-1,1.1316907E0,-1.5585984E-1,5.6603767E-2,-1.597805E-1,-1.17717005E-1,9.0566033E-1],"split_indices":[23,101,71,85,89,71,5,101,8,0,1,64,26,20,89,88,66,0,0,0,0,0,26,0,16,35,64,23,25,29,1,0,0,0,0,25,0,18,89,88,89,0,0,26,2,0,0,0,0,0,0,0,0,0,0,0,0,0,0,0,0,0,0],"split_type":[0,0,0,0,0,0,0,0,0,0,0,0,0,0,0,0,0,0,0,0,0,0,0,0,0,0,0,0,0,0,0,0,0,0,0,0,0,0,0,0,0,0,0,0,0,0,0,0,0,0,0,0,0,0,0,0,0,0,0,0,0,0,0],"sum_hessian":[2.7636624E3,3.8864005E2,2.3750225E3,2.5847113E2,1.301689E2,1.531538E3,8.434845E2,2.4926224E2,9.20889E0,9.706667E1,3.3102226E1,1.476658E3,5.4880005E1,5.889956E2,2.544889E2,2.3171558E2,1.7546669E1,2.3644447E0,6.844445E0,3.1982225E1,1.1200001E0,1.4209067E3,5.5751114E1,1.2444446E0,5.363556E1,5.413334E1,5.3486224E2,7.840001E1,1.760889E2,2.2835558E2,3.3600004E0,1.368889E1,3.857778E0,1.1200001E0,5.4631115E1,5.251556E1,1.1200001E0,4.3182224E1,1.0951112E1,4.9852448E2,3.633778E1,7.031112E1,8.088889E0,1.7223112E2,3.857778E0,1.6302223E1,2.1205334E2,1.1200001E0,2.2400002E0,1.1200001E0,5.139556E1,4.2062225E1,1.1200001E0,7.466667E0,3.4844446E0,1.4933335E0,4.9703116E2,4.2311115E0,3.210667E1,1.1200001E0,1.7111113E2,2.737778E0,1.1200001E0],"tree_param":{"num_deleted":"0","num_feature":"127","num_nodes":"63","size_leaf_vector":"1"}},{"base_weights":[4.3212004E-2,-4.0391955E-1,1.2768444E0,2.978982E0,-4.815474E-1,-3.6177358E-1,2.6089096E0,-4.4695607E-1,4.8955965E0,3.9508837E-1,-5.301146E-1,-4.959464E-1,2.2147648E0,4.5220647E0,-6.300057E-2,-1.5078275E-1,5.6603767E-2,2.1011343E0,-1.4327063E-1,-3.621347E-1,1.6645948E0,-5.316934E-1,-1.11880675E-1,-5.082565E-1,3.1120327E-1,-1.4372946E-1,5.090609E0,-3.1294126E-2,6.4917774E0,-3.2004425E-1,1.9090909E0,-4.4883865E-1,1.2128417E0,-4.7911546E-1,5.946446E0,-3.1669867E-1,-5.3274375E-1,2.4448216E-1,-1.3681428E-1,-1.5905415E-1,-3.1634104E-1,-1.227702E-1,4.8113206E-1,-9.625669E-2,1.9090909E0,-4.546933E-1,1.6919059E0,6.955277E0,1.2708017E0,2.7981648E0,-4.0229094E-1,-1.5788856E-1,5.0991494E-2,-9.932089E-2,7.641509E-1,5.6603767E-2,-1.5453614E-1,1.9394552E0,5.6603767E-2,-1.449717E-1,1.6041276E-1,-1.4245933E-1,-1.6062367E-1,1.6059722E-1,-1.4496277E-1,3.3962265E-1,-1.4939488E-1,-1.4054658E-1,2.1949768E0,-1.4668219E-1,1.7187828E0,-9.932089E-2,1.4294976E0,1.2750518E-1,-1.533027E-1],"categories":[],"categories_nodes":[],"categories_segments":[],"categories_sizes":[],"default_left":[0,0,0,0,0,0,0,0,0,0,0,0,0,0,0,0,0,0,0,0,0,0,0,0,0,0,0,0,0,0,0,0,0,0,0,0,0,0,0,0,0,0,0,0,0,0,0,0,0,0,0,0,0,0,0,0,0,0,0,0,0,0,0,0,0,0,0,0,0,0,0,0,0,0,0],"id":4,"left_children":[1,3,5,7,9,11,13,15,17,19,21,23,25,27,29,-1,-1,-1,-1,31,33,35,37,39,41,-1,43,45,47,49,-1,51,53,55,57,59,61,-1,-1,-1,63,-1,-1,-1,-1,65,-1,67,69,71,73,-1,-1,-1,-1,-1,-1,-1,-1,-1,-1,-1,-1,-1,-1,-1,-1,-1,-1,-1,-1,-1,-1,-1,-1],"loss_changes":[1.5254923E3,5.345123E2,1.606834E3,3.021031E2,8.473367E1,1.1544875E2,2.0753716E3,7.0689917E-1,3.3607477E2,1.0133418E2,1.1828613E0,3.2902374E0,1.3069696E2,2.1219849E3,2.834735E2,0E0,0E0,0E0,0E0,9.619628E0,3.638509E2,2.545166E-1,3.0326638E0,1.1402893E0,5.643497E0,0E0,5.7796295E1,1.7647783E2,3.9079297E2,4.3382706E1,0E0,3.1436129E0,8.5434265E0,7.495842E-1,3.816693E1,1.9000489E0,3.3569336E-2,0E0,0E0,0E0,5.1405087E0,0E0,0E0,0E0,0E0,5.257003E0,0E0,4.0966895E2,1.1804686E2,2.8411873E1,1.4734837E1,0E0,0E0,0E0,0E0,0E0,0E0,0E0,0E0,0E0,0E0,0E0,0E0,0E0,0E0,0E0,0E0,0E0,0E0,0E0,0E0,0E0,0E0,0E0,0E0],"parents":[2147483647,0,0,1,1,2,2,3,3,4,4,5,5,6,6,7,7,8,8,9,9,10,10,11,11,12,12,13,13,14,14,19,19,20,20,21,21,22,22,23,23,24,24,26,26,27,27,28,28,29,29,31,31,32,32,33,33,34,34,35,35,36,36,40,40,45,45,47,47,48,48,49,49,50,50],"right_children":[2,4,6,8,10,12,14,16,18,20,22,24,26,28,30,-1,-1,-1,-1,32,34,36,38,40,42,-1,44,46,48,50,-1,52,54,56,58,60,62,-1,-1,-1,64,-1,-1,-1,-1,66,-1,68,70,72,74,-1,-1,-1,-1,-1,-1,-1,-1,-1,-1,-1,-1,-1,-1,-1,-1,-1,-1,-1,-1,-1,-1,-1,-1],"split_conditions":[7.3971707E-1,-1.5651127E0,5.486235E-1,6.053249E-1,-1.2398036E0,9.811635E-1,4.4627857E-1,5.716999E-1,5.1767826E-1,6.353604E-1,7.369535E-1,5.480836E-1,2.5426486E-1,5.4725266E-1,1.4045473E0,-1.5078275E-1,5.6603767E-2,2.1011343E0,-1.4327063E-1,6.720024E-1,5.434323E-1,-1.2081103E0,-7.9419905E-1,5.4248697E-1,-3.2595664E-1,-1.4372946E-1,5.251682E-1,8.04692E-1,5.434329E-1,2.7782416E-1,1.9090909E0,6.2096316E-1,1.1294002E-2,-1.1374896E0,-9.174761E-1,6.8216693E-1,-9.7815734E-1,2.4448216E-1,-1.3681428E-1,-1.5905415E-1,5.4343265E-1,-1.227702E-1,4.8113206E-1,-9.625669E-2,1.9090909E0,-1.5970579E0,1.6919059E0,-1.15817286E-1,6.3067836E-1,-8.581036E-1,6.001454E-1,-1.5788856E-1,5.0991494E-2,-9.932089E-2,7.641509E-1,5.6603767E-2,-1.5453614E-1,1.9394552E0,5.6603767E-2,-1.449717E-1,1.6041276E-1,-1.4245933E-1,-1.6062367E-1,1.6059722E-1,-1.4496277E-1,3.3962265E-1,-1.4939488E-1,-1.4054658E-1,2.1949768E0,-1.4668219E-1,1.7187828E0,-9.932089E-2,1.4294976E0,1.2750518E-1,-1.533027E-1],"split_indices":[64,1,69,87,1,64,45,69,15,87,64,69,6,114,25,0,0,0,0,67,66,1,28,69,13,0,69,109,66,89,0,84,6,2,49,87,1,0,0,0,66,0,0,0,0,23,0,6,84,5,45,0,0,0,0,0,0,0,0,0,0,0,0,0,0,0,0,0,0,0,0,0,0,0,0],"split_type":[0,0,0,0,0,0,0,0,0,0,0,0,0,0,0,0,0,0,0,0,0,0,0,0,0,0,0,0,0,0,0,0,0,0,0,0,0,0,0,0,0,0,0,0,0,0,0,0,0,0,0,0,0,0,0,0,0,0,0,0,0,0,0,0,0,0,0,0,0,0,0,0,0,0,0],"sum_hessian":[2.7636624E3,2.0289424E3,7.3472003E2,4.467556E1,1.9842668E3,3.297778E2,4.0494226E2,1.6302223E1,2.8373335E1,1.03786674E2,1.8804801E3,3.1422226E2,1.5555557E1,2.3557335E2,1.693689E2,1.5182223E1,1.1200001E0,2.0160002E1,8.213334E0,6.545779E1,3.832889E1,1.873138E3,7.3422227E0,3.098667E2,4.355556E0,8.462223E0,7.0933337E0,7.1431114E1,1.6414224E2,1.637689E2,5.6000004E0,6.2720005E1,2.737778E0,2.6133335E1,1.2195557E1,1.0577779E1,1.8625602E3,1.617778E0,5.724445E0,2.7651556E2,3.3351112E1,3.235556E0,1.1200001E0,1.4933335E0,5.6000004E0,6.732445E1,4.106667E0,1.5045334E2,1.368889E1,3.3600004E0,1.604089E2,5.587556E1,6.844445E0,1.617778E0,1.1200001E0,1.1200001E0,2.5013336E1,1.1075557E1,1.1200001E0,9.20889E0,1.368889E0,8.997334E1,1.7725868E3,5.1022224E0,2.8248892E1,1.1200001E0,6.620445E1,6.968889E0,1.4348445E2,1.0453334E1,3.235556E0,1.617778E0,1.7422223E0,1.8293335E1,1.4211557E2],"tree_param":{"num_deleted":"0","num_feature":"127","num_nodes":"75","size_leaf_vector":"1"}},{"base_weights":[4.1765172E-2,-3.0058447E-1,6.9380536E0,2.341569E0,-4.4700617E-1,-1.4327063E-1,2.2316449E0,-4.735206E-1,5.389827E0,-5.0250614E-1,2.7278354E0,-1.5830052E-1,8.1669666E-2,2.1933174E0,-1.5142563E-1,7.520142E-1,-5.255403E-1,-2.514671E-2,6.7308173E0,-1.3490364E-1,4.8113206E-1,-1.5639555E-1,1.8779527E0,3.1188118E-1,-5.2677965E-1,-3.133369E-1,8.174873E-1,2.1130645E0,3.3962265E-1,-1.5975249E-1,-8.9060105E-2,-1.5358059E-1,3.3289298E-1],"categories":[],"categories_nodes":[],"categories_segments":[],"categories_sizes":[],"default_left":[0,0,0,0,0,0,0,0,0,0,0,0,0,0,0,0,0,0,0,0,0,0,0,0,0,0,0,0,0,0,0,0,0],"id":5,"left_children":[1,3,5,7,9,-1,-1,11,13,15,17,-1,19,-1,-1,21,23,25,27,-1,-1,-1,-1,-1,29,31,-1,-1,-1,-1,-1,-1,-1],"loss_changes":[6.5292935E3,1.02039374E3,4.8925684E2,1.1911326E3,4.4141397E2,0E0,0E0,2.2355022E0,7.57724E2,7.134534E1,4.747209E2,0E0,6.6629286E0,0E0,0E0,3.1661755E2,5.225647E0,2.1865295E1,2.2756409E1,0E0,0E0,0E0,0E0,0E0,3.0166626E0,7.6029606E0,0E0,0E0,0E0,0E0,0E0,0E0,0E0],"parents":[2147483647,0,0,1,1,2,2,3,3,4,4,7,7,8,8,9,9,10,10,12,12,15,15,16,16,17,17,18,18,24,24,25,25],"right_children":[2,4,6,8,10,-1,-1,12,14,16,18,-1,20,-1,-1,22,24,26,28,-1,-1,-1,-1,-1,30,32,-1,-1,-1,-1,-1,-1,-1],"split_conditions":[1.8307732E0,-1.3598272E0,4.5454416E-1,7.0840645E-1,1.9487288E0,-1.4327063E-1,2.2316449E0,5.888587E-1,4.6309137E-1,-1.5922719E0,5.434331E-1,-1.5830052E-1,3.226373E-1,2.1933174E0,-1.5142563E-1,5.434331E-1,-2.3733966E0,1.3284298E0,5.3933436E-1,-1.3490364E-1,4.8113206E-1,-1.5639555E-1,1.8779527E0,3.1188118E-1,1.6191081E0,7.3183966E-1,8.174873E-1,2.1130645E0,3.3962265E-1,-1.5975249E-1,-8.9060105E-2,-1.5358059E-1,3.3289298E-1],"split_indices":[3,42,101,89,53,0,0,89,65,1,66,0,6,0,0,66,48,3,36,0,0,0,0,0,32,64,0,0,0,0,0,0,0],"split_type":[0,0,0,0,0,0,0,0,0,0,0,0,0,0,0,0,0,0,0,0,0,0,0,0,0,0,0,0,0,0,0,0,0],"sum_hessian":[2.7636624E3,2.633867E3,1.2979556E2,1.3751112E2,2.4963557E3,8.213334E0,1.2158223E2,7.1928894E1,6.558223E1,2.4542935E3,4.2062225E1,6.558223E1,6.3466673E0,4.9280003E1,1.6302223E1,4.3680004E1,2.4106135E3,2.5511114E1,1.6551113E1,5.226667E0,1.1200001E0,3.6213337E1,7.466667E0,1.2444446E0,2.4093691E3,2.3893335E1,1.617778E0,1.5431112E1,1.1200001E0,2.3495112E3,5.9857784E1,2.152889E1,2.3644447E0],"tree_param":{"num_deleted":"0","num_feature":"127","num_nodes":"33","size_leaf_vector":"1"}},{"base_weights":[2.7007277E-3,1.8757689E0,-2.1888956E-1,2.7432725E-2,4.5868464E0,-2.879816E-1,3.4389815E0,-3.3854938E-1,5.537525E0,-1.5584153E-1,6.478269E0,-3.3665258E-1,2.2795053E0,-1.537348E-1,2.1307418E0,-4.2193E-1,1.2389443E0,-1.0210697E-1,2.0057886E0,-1.455271E-1,7.3507175E0,-4.1044858E-1,7.3962945E-1,6.407193E0,-1.7703134E-1,-1.5954876E-1,1.7683236E-1,6.226415E-1,2.2203617E0,-4.838649E-1,1.1481922E0,-5.1521575E-1,5.7853093E0,-9.287055E-2,2.1053984E0,2.1033208E0,-4.7832584E-1,1.433121E0,-1.5388249E-1,-1.3481452E-2,-1.5503575E-1,-1.5821649E-1,1.201464E0,5.6603767E-2,-1.5695587E-1,-1.3636364E-1,2.1600637E0,-9.625669E-2,1.1886792E0,5.6603767E-2,-1.5444618E-1],"categories":[],"categories_nodes":[],"categories_segments":[],"categories_sizes":[],"default_left":[0,0,0,0,0,0,0,0,0,0,0,0,0,0,0,0,0,0,0,0,0,0,0,0,0,0,0,0,0,0,0,0,0,0,0,0,0,0,0,0,0,0,0,0,0,0,0,0,0,0,0],"id":6,"left_children":[1,3,5,7,9,11,13,15,17,-1,19,21,23,-1,-1,25,-1,-1,-1,-1,27,29,31,33,35,-1,37,-1,-1,39,41,43,45,-1,-1,47,49,-1,-1,-1,-1,-1,-1,-1,-1,-1,-1,-1,-1,-1,-1],"loss_changes":[1.1478939E3,1.4659541E3,6.2601355E2,3.5472513E2,1.1488291E3,3.0419586E2,6.684434E2,6.322397E1,7.622974E1,0E0,5.2978345E2,1.8964258E2,4.6049054E2,0E0,0E0,1.0813578E1,0E0,0E0,0E0,0E0,5.1557617E0,2.5591034E2,9.737336E2,7.162506E1,2.1187248E1,0E0,8.49939E1,0E0,0E0,3.078183E1,4.8402814E2,7.9273224E-1,2.7359082E2,0E0,0E0,1.755446E1,7.4853325E-1,0E0,0E0,0E0,0E0,0E0,0E0,0E0,0E0,0E0,0E0,0E0,0E0,0E0,0E0],"parents":[2147483647,0,0,1,1,2,2,3,3,4,4,5,5,6,6,7,7,8,8,10,10,11,11,12,12,15,15,20,20,21,21,22,22,23,23,24,24,26,26,29,29,30,30,31,31,32,32,35,35,36,36],"right_children":[2,4,6,8,10,12,14,16,18,-1,20,22,24,-1,-1,26,-1,-1,-1,-1,28,30,32,34,36,-1,38,-1,-1,40,42,44,46,-1,-1,48,50,-1,-1,-1,-1,-1,-1,-1,-1,-1,-1,-1,-1,-1,-1],"split_conditions":[-1.1992576E0,2.9836848E-1,7.5828236E-1,5.6755006E-1,1.1739934E-1,8.625991E-1,4.1831425E-1,4.1831425E-1,-1.6586704E0,-1.5584153E-1,-8.922788E-1,1.6189634E0,5.434335E-1,-1.537348E-1,2.1307418E0,3.217271E-1,1.2389443E0,-1.0210697E-1,2.0057886E0,-1.455271E-1,-8.835692E-1,8.977719E-1,4.2578375E-1,-1.1266448E0,2.506737E-1,-1.5954876E-1,2.825707E-1,6.226415E-1,2.2203617E0,-9.378086E-1,8.05096E-1,-2.4825846E-1,4.501252E-1,-9.287055E-2,2.1053984E0,-1.5396063E0,-1.924816E0,1.433121E0,-1.5388249E-1,-1.3481452E-2,-1.5503575E-1,-1.5821649E-1,1.201464E0,5.6603767E-2,-1.5695587E-1,-1.3636364E-1,2.1600637E0,-9.625669E-2,1.1886792E0,5.6603767E-2,-1.5444618E-1],"split_indices":[13,15,90,76,106,76,4,4,1,0,1,44,66,0,0,88,0,0,0,0,23,86,1,53,13,0,79,0,0,13,77,11,102,0,0,1,9,0,0,0,0,0,0,0,0,0,0,0,0,0,0],"split_type":[0,0,0,0,0,0,0,0,0,0,0,0,0,0,0,0,0,0,0,0,0,0,0,0,0,0,0,0,0,0,0,0,0,0,0,0,0,0,0,0,0,0,0,0,0,0,0,0,0,0,0],"sum_hessian":[2.7636624E3,2.9157336E2,2.472089E3,1.7397334E2,1.17600006E2,2.4271646E3,4.492445E1,1.6401779E2,9.955557E0,3.1982225E1,8.561778E1,2.3828623E3,4.4302227E1,2.2026669E1,2.289778E1,1.6190224E2,2.1155558E0,1.7422223E0,8.213334E0,9.582223E0,7.603556E1,2.2305425E3,1.5232E2,1.592889E1,2.8373335E1,1.368889E2,2.5013336E1,1.1200001E0,7.4915565E1,2.1308623E3,9.968001E1,1.2270223E2,2.961778E1,1.368889E0,1.4560001E1,2.6133335E0,2.5760002E1,2.4888892E0,2.2524446E1,1.4883557E2,1.9820269E3,6.3342228E1,3.633778E1,1.1200001E0,1.2158223E2,5.6000004E0,2.401778E1,1.4933335E0,1.1200001E0,1.1200001E0,2.4640001E1],"tree_param":{"num_deleted":"0","num_feature":"127","num_nodes":"51","size_leaf_vector":"1"}},{"base_weights":[-9.163504E-4,5.494412E0,-3.2122394E-1,-4.891524E-1,7.0886726E0,4.232162E0,-4.3052918E-1,-1.5567026E-1,5.6603767E-2,-2.8907922E-1,2.2278483E0,-1.5429029E-1,2.1897392E0,-5.31415E-1,2.3670317E-1,-1.2924282E-1,5.6603767E-2,-2.702703E-1,-5.327511E-1,-2.3227648E-1,5.256608E0,-1.4754099E-1,3.3962265E-1,-1.602295E-1,-3.463461E-1,4.470499E0,-4.6599874E-1,6.5811963E0,-1.3540938E-1,-1.5155736E-1,3.3962265E-1,-1.3203807E-1,2.026884E0,-1.5804611E-1,3.7101573E-1,-1.0210697E-1,2.1461112E0],"categories":[],"categories_nodes":[],"categories_segments":[],"categories_sizes":[],"default_left":[0,0,0,0,0,0,0,0,0,0,0,0,0,0,0,0,0,0,0,0,0,0,0,0,0,0,0,0,0,0,0,0,0,0,0,0,0],"id":7,"left_children":[1,3,5,7,9,11,13,-1,-1,15,-1,-1,-1,17,19,-1,-1,21,23,25,27,-1,-1,-1,29,31,33,35,-1,-1,-1,-1,-1,-1,-1,-1,-1],"loss_changes":[4.868111E3,1.4565454E3,1.3025035E3,7.6297283E-1,3.017871E2,8.9692236E2,1.7197797E2,0E0,0E0,5.029097E-1,0E0,0E0,0E0,6.2994385E-1,7.922539E2,0E0,0E0,4.694828E0,3.6889648E-1,3.4089786E2,2.2034937E2,0E0,0E0,0E0,4.9566374E0,1.6785077E2,3.1157223E1,9.516058E1,0E0,0E0,0E0,0E0,0E0,0E0,0E0,0E0,0E0],"parents":[2147483647,0,0,1,1,2,2,3,3,4,4,5,5,6,6,9,9,13,13,14,14,17,17,18,18,19,19,20,20,24,24,25,25,26,26,27,27],"right_children":[2,4,6,8,10,12,14,-1,-1,16,-1,-1,-1,18,20,-1,-1,22,24,26,28,-1,-1,-1,30,32,34,36,-1,-1,-1,-1,-1,-1,-1,-1,-1],"split_conditions":[-1.49716E0,5.434341E-1,-1.8942364E0,4.3062836E-1,5.140418E-2,-3.9928448E-1,5.4343426E-1,-1.5567026E-1,5.6603767E-2,1.3427509E0,2.2278483E0,-1.5429029E-1,2.1897392E0,-1.41857E0,7.5490427E-1,-1.2924282E-1,5.6603767E-2,-2.8041357E-1,5.434342E-1,-1.3000337E0,5.2811635E-1,-1.4754099E-1,3.3962265E-1,-1.602295E-1,8.7516874E-1,9.4148433E-1,5.9914416E-1,-3.2104564E-1,-1.3540938E-1,-1.5155736E-1,3.3962265E-1,-1.3203807E-1,2.026884E0,-1.5804611E-1,3.7101573E-1,-1.0210697E-1,2.1461112E0],"split_indices":[38,66,11,8,15,9,66,0,0,1,0,0,0,38,12,0,0,2,66,38,23,0,0,0,12,1,12,3,0,0,0,0,0,0,0,0,0],"split_type":[0,0,0,0,0,0,0,0,0,0,0,0,0,0,0,0,0,0,0,0,0,0,0,0,0,0,0,0,0,0,0,0,0,0,0,0,0],"sum_hessian":[2.7636624E3,1.5132446E2,2.612338E3,3.1982225E1,1.1934223E2,6.035556E1,2.5519824E3,3.0862225E1,1.1200001E0,5.226667E0,1.1411556E2,2.401778E1,3.633778E1,2.216978E3,3.350045E2,4.106667E0,1.1200001E0,1.2320001E1,2.204658E3,3.0725336E2,2.7751114E1,1.1200001E1,1.1200001E0,2.1869868E3,1.7671112E1,1.368889E1,2.9356448E2,2.2400002E1,5.3511114E0,1.6551113E1,1.1200001E0,4.604445E0,9.084445E0,2.841067E2,9.457779E0,1.7422223E0,2.065778E1],"tree_param":{"num_deleted":"0","num_feature":"127","num_nodes":"37","size_leaf_vector":"1"}},{"base_weights":[4.1403465E-2,2.0011234E0,-1.6063908E-1,3.3847651E0,9.5141634E-2,7.2649115E-1,4.789991E0,9.038629E-1,-4.4481808E-1,5.8303246E0,2.3739037E-1,-3.6678687E-1,6.145727E0,-4.1387025E-1,2.195754E0,9.0566033E-1,-4.8825884E-1,1.9874141E0,3.37711E-2,4.7322717E0,-1.4509614E-1,-5.0415564E-1,6.279069E-1,3.3604884E0,6.6875296E0,-1.5723363E-1,2.3622043E-1,-4.4713554E-1,4.9797873E0,-5.00606E-1,1.981132E-1,-9.287055E-2,1.6954674E0,1.0193949E0,-1.01570174E-1,5.6603767E-2,-1.5733382E-1,1.8046571E0,1.2080536E-1,2.7272725E-1,2.0686069E0,7.641509E-1,-1.3883847E-1,1.981132E-1,-1.5487154E-1,-3.0751713E-2,1.8390093E0,5.6603767E-2,-1.5202272E-1],"categories":[],"categories_nodes":[],"categories_segments":[],"categories_sizes":[],"default_left":[0,0,0,0,0,0,0,0,0,0,0,0,0,0,0,0,0,0,0,0,0,0,0,0,0,0,0,0,0,0,0,0,0,0,0,0,0,0,0,0,0,0,0,0,0,0,0,0,0],"id":8,"left_children":[1,3,-1,5,7,9,11,13,15,17,19,21,23,25,27,-1,29,-1,-1,31,33,35,-1,37,39,-1,41,43,45,47,-1,-1,-1,-1,-1,-1,-1,-1,-1,-1,-1,-1,-1,-1,-1,-1,-1,-1,-1],"loss_changes":[3.1265166E3,1.6583337E3,0E0,1.357644E3,1.1636987E2,3.1611066E2,1.6675044E3,1.8247195E2,2.55357E1,4.9580963E1,2.0202011E2,1.8128975E1,2.6222607E2,3.9680338E0,3.9965103E2,0E0,2.582695E0,0E0,0E0,4.4452362E1,7.579501E1,7.830448E-1,0E0,2.5463498E2,1.8219043E2,0E0,1.4855778E1,2.5317802E0,1.5488147E2,7.6252747E-1,0E0,0E0,0E0,0E0,0E0,0E0,0E0,0E0,0E0,0E0,0E0,0E0,0E0,0E0,0E0,0E0,0E0,0E0,0E0],"parents":[2147483647,0,0,1,1,3,3,4,4,5,5,6,6,7,7,8,8,9,9,10,10,11,11,12,12,13,13,14,14,16,16,19,19,20,20,21,21,23,23,24,24,26,26,27,27,28,28,29,29],"right_children":[2,4,-1,6,8,10,12,14,16,18,20,22,24,26,28,-1,30,-1,-1,32,34,36,-1,38,40,-1,42,44,46,48,-1,-1,-1,-1,-1,-1,-1,-1,-1,-1,-1,-1,-1,-1,-1,-1,-1,-1,-1],"split_conditions":[5.434334E-1,-7.846569E-1,-1.6063908E-1,-8.743499E-1,-4.7354242E-1,-1.19369E0,-3.0454603E-1,-2.567551E-1,-1.242644E0,1.3804183E0,-4.8637453E-1,1.7495852E0,-4.619231E-1,-4.213151E-1,-9.334242E-1,9.0566033E-1,2.1155512E0,1.9874141E0,3.37711E-2,5.437625E-1,-8.331559E-1,-8.558776E-1,6.279069E-1,1.05336525E-1,-1.1423073E0,-1.5723363E-1,-9.599782E-2,-5.406303E-1,-3.333126E-1,-1.831964E0,1.981132E-1,-9.287055E-2,1.6954674E0,1.0193949E0,-1.01570174E-1,5.6603767E-2,-1.5733382E-1,1.8046571E0,1.2080536E-1,2.7272725E-1,2.0686069E0,7.641509E-1,-1.3883847E-1,1.981132E-1,-1.5487154E-1,-3.0751713E-2,1.8390093E0,5.6603767E-2,-1.5202272E-1],"split_indices":[0,26,0,12,26,39,41,20,38,13,3,51,18,20,15,0,60,0,0,2,13,6,0,4,3,0,17,13,14,16,0,0,0,0,0,0,0,0,0,0,0,0,0,0,0,0,0,0,0],"split_type":[0,0,0,0,0,0,0,0,0,0,0,0,0,0,0,0,0,0,0,0,0,0,0,0,0,0,0,0,0,0,0,0,0,0,0,0,0,0,0,0,0,0,0,0,0,0,0,0,0],"sum_hessian":[2.7636624E3,6.279467E2,2.1357158E3,3.633778E2,2.645689E2,1.26186676E2,2.3719113E2,1.0565334E2,1.5891557E2,1.0080001E1,1.16106674E2,4.9528893E1,1.8766223E2,5.2640003E1,5.3013336E1,1.1200001E0,1.5779556E2,8.711112E0,1.368889E0,8.213334E0,1.0789334E2,4.7662228E1,1.8666668E0,3.1733335E1,1.5592891E2,4.5173336E1,7.466667E0,2.7626669E1,2.538667E1,1.5667557E2,1.1200001E0,1.368889E0,6.844445E0,4.7288895E0,1.0316445E2,1.1200001E0,4.6542225E1,1.6177778E1,1.5555557E1,5.6000004E0,1.503289E2,1.1200001E0,6.3466673E0,1.1200001E0,2.6506668E1,4.853334E0,2.0533335E1,1.1200001E0,1.5555557E2],"tree_param":{"num_deleted":"0","num_feature":"127","num_nodes":"49","size_leaf_vector":"1"}},{"base_weights":[3.0552229E-2,-4.5874187E-1,3.216057E0,-5.1856554E-1,1.0297843E0,7.25589E0,-4.0485138E-1,-5.2375185E-1,2.184185E0,2.0877776E0,-1.585584E-1,2.2314835E0,-1.2845674E-1,-5.1212406E-1,1.5120829E0,-5.301813E-1,-1.18237205E-1,-1.0912982E-1,1.3475935E0,5.675675E-1,-1.5986466E-1,-3.186418E-1,-5.350205E-1,1.4651163E0,-1.5616748E-1,-1.06983654E-1,4.8113206E-1,-1.5761009E-1,1.3001876E0,-1.6064155E-1,-6.824265E-2],"categories":[],"categories_nodes":[],"categories_segments":[],"categories_sizes":[],"default_left":[1,1,0,1,0,0,0,1,0,0,0,0,0,0,0,0,0,0,0,0,0,0,1,0,0,0,0,0,0,0,0],"id":9,"left_children":[1,3,5,7,9,11,13,15,17,-1,-1,-1,-1,19,-1,21,23,-1,-1,25,-1,27,29,-1,-1,-1,-1,-1,-1,-1,-1],"loss_changes":[4.310613E3,2.140228E2,5.3894385E3,3.3460266E1,8.62667E2,2.4718652E2,1.16561264E2,5.938843E0,2.8734968E1,0E0,0E0,0E0,0E0,4.611702E0,0E0,2.1487427E0,7.743012E1,0E0,0E0,4.508892E0,0E0,5.3389618E1,1.8554688E-1,0E0,0E0,0E0,0E0,0E0,0E0,0E0,0E0],"parents":[2147483647,0,0,1,1,2,2,3,3,4,4,5,5,6,6,7,7,8,8,13,13,15,15,16,16,19,19,21,21,22,22],"right_children":[2,4,6,8,10,12,14,16,18,-1,-1,-1,-1,20,-1,22,24,-1,-1,26,-1,28,30,-1,-1,-1,-1,-1,-1,-1,-1],"split_conditions":[7.7738976E-1,7.3390037E-1,6.242874E-1,7.641935E-1,-6.7606014E-1,1.5701427E0,1.1430364E0,7.329814E-1,-1.3919914E0,2.0877776E0,-1.585584E-1,2.2314835E0,-1.2845674E-1,6.374533E-1,1.5120829E0,-1.6195341E0,-1.2954262E0,-1.0912982E-1,1.3475935E0,-8.486623E-1,-1.5986466E-1,5.9952486E-1,7.3103493E-1,1.4651163E0,-1.5616748E-1,-1.06983654E-1,4.8113206E-1,-1.5761009E-1,1.3001876E0,-1.6064155E-1,-6.824265E-2],"split_indices":[119,107,77,119,41,23,122,122,8,0,0,0,0,77,0,41,41,0,0,1,0,107,107,0,0,0,0,0,0,0,0],"split_type":[0,0,0,0,0,0,0,0,0,0,0,0,0,0,0,0,0,0,0,0,0,0,0,0,0,0,0,0,0,0,0],"sum_hessian":[2.7636624E3,2.3964268E3,3.672356E2,2.3044624E3,9.1964455E1,1.7310223E2,1.9413335E2,2.3008535E3,3.608889E0,1.841778E1,7.354668E1,1.6912001E2,3.9822226E0,1.9127113E2,2.8622224E0,2.2646401E3,3.6213337E1,2.1155558E0,1.4933335E0,3.1111114E0,1.8816002E2,5.2142227E1,2.212498E3,1.8666668E0,3.434667E1,1.9911113E0,1.1200001E0,5.077334E1,1.368889E0,2.2085156E3,3.9822226E0],"tree_param":{"num_deleted":"0","num_feature":"127","num_nodes":"31","size_leaf_vector":"1"}},{"base_weights":[4.6105664E-2,6.051548E0,-3.8362655E-1,-1.5559019E-1,7.347714E0,-4.274682E-1,5.86555E0,-1.06983654E-1,2.2352288E0,1.1784102E0,-5.0283843E-1,-1.1623617E-1,2.084797E0,-1.587517E-1,5.214775E0,9.209351E-2,-5.2657294E-1,-3.5433072E-1,6.774673E0,-4.3319276E-1,3.5630963E0,-5.308003E-1,5.925749E-1,-1.3883847E-1,5.6603767E-2,2.150061E0,-9.287055E-2,-1.4780045E-1,6.226415E-1,1.9437386E0,-1.3490364E-1,-1.0675664E-1,-1.603829E-1,-1.4085668E-1,1.2475247E0],"categories":[],"categories_nodes":[],"categories_segments":[],"categories_sizes":[],"default_left":[0,0,0,0,0,0,0,0,0,0,0,0,0,0,0,0,0,0,0,0,0,0,0,0,0,0,0,0,0,0,0,0,0,0,0],"id":10,"left_children":[1,3,5,-1,7,9,11,-1,-1,13,15,-1,-1,-1,17,19,21,23,25,27,29,31,33,-1,-1,-1,-1,-1,-1,-1,-1,-1,-1,-1,-1],"loss_changes":[7.137175E3,1.5765542E3,7.096299E2,0E0,1.251709E2,3.1091928E2,1.2500696E2,0E0,0E0,7.9704285E2,3.4639282E1,0E0,0E0,0E0,3.0081653E2,1.7444624E2,1.1460083E1,5.859822E-1,7.691492E1,1.3444895E1,1.5003888E2,1.3742676E0,3.7317146E1,0E0,0E0,0E0,0E0,0E0,0E0,0E0,0E0,0E0,0E0,0E0,0E0],"parents":[2147483647,0,0,1,1,2,2,4,4,5,5,6,6,9,9,10,10,14,14,15,15,16,16,17,17,18,18,19,19,20,20,21,21,22,22],"right_children":[2,4,6,-1,8,10,12,-1,-1,14,16,-1,-1,-1,18,20,22,24,26,28,30,32,34,-1,-1,-1,-1,-1,-1,-1,-1,-1,-1,-1,-1],"split_conditions":[-1.4908464E0,4.8119327E-1,2.2007742E0,-1.5559019E-1,5.4269165E-1,-1.1843957E0,6.602774E-1,-1.06983654E-1,2.2352288E0,5.1395607E-1,-1.052982E0,-1.1623617E-1,2.084797E0,-1.587517E-1,1.7528418E-1,-7.6523083E-1,2.0993733E0,8.1592333E-1,7.1572655E-1,1.0325717E0,-4.915062E-1,-9.869602E-1,1.6193453E0,-1.3883847E-1,5.6603767E-2,2.150061E0,-9.287055E-2,-1.4780045E-1,6.226415E-1,1.9437386E0,-1.3490364E-1,-1.0675664E-1,-1.603829E-1,-1.4085668E-1,1.2475247E0],"split_indices":[2,81,1,0,68,2,85,0,0,81,2,0,0,0,26,5,1,1,73,31,40,2,13,0,0,0,0,0,0,0,0,0,0,0,0],"split_type":[0,0,0,0,0,0,0,0,0,0,0,0,0,0,0,0,0,0,0,0,0,0,0,0,0,0,0,0,0,0,0,0,0,0,0],"sum_hessian":[2.7636624E3,1.8368001E2,2.5799824E3,3.0364447E1,1.5331557E2,2.5629336E3,1.7048891E1,1.9911113E0,1.5132446E2,1.1424001E2,2.4486936E3,2.6133335E0,1.4435556E1,8.088889E1,3.3351112E1,9.3831116E1,2.3548623E3,7.466667E0,2.5884447E1,8.225778E1,1.1573335E1,2.3465247E3,8.337778E0,6.3466673E0,1.1200001E0,2.4515558E1,1.368889E0,8.113779E1,1.1200001E0,6.3466673E0,5.226667E0,5.201778E1,2.2945068E3,7.0933337E0,1.2444446E0],"tree_param":{"num_deleted":"0","num_feature":"127","num_nodes":"35","size_leaf_vector":"1"}},{"base_weights":[4.1403465E-2,4.384634E0,-2.3044768E-1,-6.1899867E-2,6.6519747E0,1.021127E0,-1.6063753E-1,-3.532863E-1,3.169014E0,6.909587E0,-1.2676057E-1,-1.3438971E-1,3.7666438E0,9.0566033E-1,-4.8614126E-1,-9.932089E-2,1.5278174E0,7.29335E-3,7.026469E0,2.109466E0,-3.688976E-1,1.5924238E0,6.2534027E0,-5.0501907E-1,5.6603767E-2,-8.490566E-2,7.110077E0,-4.3541363E-1,3.9600532E0,-3.9865133E-1,8.959881E-1,3.6173105E0,-4.045086E-1,-1.2676057E-1,6.6347885E0,-1.5729806E-1,-4.5150507E-2,2.1526773E0,1.981132E-1,-1.493893E-1,5.6603767E-2,-3.6052443E-2,1.6120611E0,-1.404588E-1,-5.8365827E-3,-9.706211E-2,1.5218717E0,6.226415E-1,-1.5680121E-1,-1.5293124E-2,2.1270623E0],"categories":[],"categories_nodes":[],"categories_segments":[],"categories_sizes":[],"default_left":[0,0,0,0,0,0,0,0,0,0,0,0,0,0,0,0,0,0,0,0,0,0,0,0,0,0,0,0,0,0,0,0,0,0,0,0,0,0,0,0,0,0,0,0,0,0,0,0,0,0,0],"id":11,"left_children":[1,3,5,7,9,11,-1,13,15,17,-1,19,21,-1,23,-1,-1,-1,25,27,29,31,33,35,-1,-1,37,39,41,43,-1,45,47,-1,49,-1,-1,-1,-1,-1,-1,-1,-1,-1,-1,-1,-1,-1,-1,-1,-1],"loss_changes":[3.2652812E3,1.6427603E3,9.941339E2,5.3844643E1,1.9956152E2,1.6195903E3,0E0,2.4885445E1,3.3556274E1,8.365723E1,0E0,1.9028806E2,8.075681E2,0E0,7.469082E-1,0E0,0E0,0E0,6.460547E1,1.6291551E2,3.3830112E1,3.330893E2,1.8151733E2,2.6354694E-1,0E0,0E0,3.8065918E1,6.916616E-1,1.1550549E2,8.55962E0,0E0,2.3580914E2,1.3448461E1,0E0,2.0271362E2,0E0,0E0,0E0,0E0,0E0,0E0,0E0,0E0,0E0,0E0,0E0,0E0,0E0,0E0,0E0,0E0],"parents":[2147483647,0,0,1,1,2,2,3,3,4,4,5,5,7,7,8,8,9,9,11,11,12,12,14,14,18,18,19,19,20,20,21,21,22,22,23,23,26,26,27,27,28,28,29,29,31,31,32,32,34,34],"right_children":[2,4,6,8,10,12,-1,14,16,18,-1,20,22,-1,24,-1,-1,-1,26,28,30,32,34,36,-1,-1,38,40,42,44,-1,46,48,-1,50,-1,-1,-1,-1,-1,-1,-1,-1,-1,-1,-1,-1,-1,-1,-1,-1],"split_conditions":[-1.6188414E0,-3.9999822E-1,5.434334E-1,1.9237422E0,5.434334E-1,7.3027307E-1,-1.6063753E-1,-2.4690049E0,-8.626764E-1,-6.5972847E-1,-1.2676057E-1,-5.03062E-1,-1.2895232E-1,9.0566033E-1,-2.4667175E-1,-9.932089E-2,1.5278174E0,7.29335E-3,-1.2715446E0,4.9726972E-1,2.0873947E0,8.8224655E-1,-5.852979E-1,1.4079554E0,5.6603767E-2,-8.490566E-2,-1.4066507E0,1.1246363E0,-8.392047E-1,1.4526217E0,8.959881E-1,-3.7181842E-1,4.9800187E-1,-1.2676057E-1,-1.1083266E0,-1.5729806E-1,-4.5150507E-2,2.1526773E0,1.981132E-1,-1.493893E-1,5.6603767E-2,-3.6052443E-2,1.6120611E0,-1.404588E-1,-5.8365827E-3,-9.706211E-2,1.5218717E0,6.226415E-1,-1.5680121E-1,-1.5293124E-2,2.1270623E0],"split_indices":[12,63,0,13,0,63,0,6,39,29,0,6,14,0,30,0,0,0,3,11,2,30,1,2,0,0,9,1,24,28,0,7,54,0,3,0,0,0,0,0,0,0,0,0,0,0,0,0,0,0,0],"split_type":[0,0,0,0,0,0,0,0,0,0,0,0,0,0,0,0,0,0,0,0,0,0,0,0,0,0,0,0,0,0,0,0,0,0,0,0,0,0,0,0,0,0,0,0,0,0,0,0,0,0,0],"sum_hessian":[2.7636624E3,1.6190224E2,2.6017603E3,5.5004448E1,1.0689779E2,5.0935117E2,2.0924092E3,5.1271114E1,3.7333336E0,1.0316445E2,3.7333336E0,3.591467E2,1.5020445E2,1.1200001E0,5.0151115E1,1.617778E0,2.1155558E0,1.7422223E0,1.0142223E2,3.322667E1,3.2592E2,8.101334E1,6.919112E1,4.9031116E1,1.1200001E0,1.1200001E0,1.0030223E2,1.4311112E1,1.8915558E1,3.2392892E2,1.9911113E0,3.9822227E1,4.1191116E1,3.7333336E0,6.545779E1,4.604445E1,2.986667E0,9.918223E1,1.1200001E0,1.31911125E1,1.1200001E0,5.1022224E0,1.3813334E1,2.735289E2,5.0400005E1,1.0951112E1,2.8871113E1,1.1200001E0,4.0071114E1,4.2311115E0,6.1226673E1],"tree_param":{"num_deleted":"0","num_feature":"127","num_nodes":"51","size_leaf_vector":"1"}},{"base_weights":[2.6211735E-2,-4.7588935E-1,5.092135E0,-4.996056E-1,5.542168E0,7.378506E0,-4.875613E-1,-5.221102E-1,7.9654205E-1,-9.625669E-2,1.984252E0,-1.0210697E-1,2.237159E0,-1.5848008E-1,2.6470587E-1,-5.3297275E-1,-2.0047617E-1,1.9396971E0,-1.5624614E-1,-1.6064566E-1,-3.8524505E-1,3.212341E0,-1.585938E-1,-1.5691629E-1,7.641509E-1,1.7339449E0,-1.20401345E-1],"categories":[],"categories_nodes":[],"categories_segments":[],"categories_sizes":[],"default_left":[0,0,0,0,0,0,0,0,0,0,0,0,0,0,0,0,0,0,0,0,0,0,0,0,0,0,0],"id":12,"left_children":[1,3,5,7,9,11,13,15,17,-1,-1,-1,-1,-1,-1,19,21,-1,-1,-1,23,25,-1,-1,-1,-1,-1],"loss_changes":[7.0346343E3,3.6190533E2,3.1851445E3,7.355237E1,6.472269E1,1.1002539E2,4.560625E0,8.505737E0,3.2589755E2,0E0,0E0,0E0,0E0,0E0,0E0,6.7858887E-1,9.3691154E1,0E0,0E0,0E0,1.8885216E1,7.0482254E1,0E0,0E0,0E0,0E0,0E0],"parents":[2147483647,0,0,1,1,2,2,3,3,4,4,5,5,6,6,7,7,8,8,15,15,16,16,20,20,21,21],"right_children":[2,4,6,8,10,12,14,16,18,-1,-1,-1,-1,-1,-1,20,22,-1,-1,-1,24,26,-1,-1,-1,-1,-1],"split_conditions":[1.5477341E0,1.0009062E0,9.7288114E-1,1.3916647E0,1.461769E-1,6.1296793E-3,5.434338E-1,1.1557088E0,1.880893E-1,-9.625669E-2,1.984252E0,-1.0210697E-1,2.237159E0,-1.5848008E-1,2.6470587E-1,1.0635972E0,-3.1725636E-1,1.9396971E0,-1.5624614E-1,-1.6064566E-1,6.196213E-1,2.2046073E-1,-1.585938E-1,-1.5691629E-1,7.641509E-1,1.7339449E0,-1.20401345E-1],"split_indices":[8,88,38,8,2,65,66,8,38,0,0,0,0,0,0,8,47,0,0,0,72,48,0,0,0,0,0],"split_type":[0,0,0,0,0,0,0,0,0,0,0,0,0,0,0,0,0,0,0,0,0,0,0,0,0,0,0],"sum_hessian":[2.7636624E3,2.5152712E3,2.4839113E2,2.5063113E3,8.960001E0,1.7596446E2,7.2426674E1,2.4641248E3,4.218667E1,1.4933335E0,7.466667E0,1.7422223E0,1.7422224E2,7.093334E1,1.4933335E0,2.3829868E3,8.113779E1,7.217778E0,3.496889E1,2.3405513E3,4.243556E1,6.3466673E0,7.4791115E1,4.131556E1,1.1200001E0,3.3600004E0,2.986667E0],"tree_param":{"num_deleted":"0","num_feature":"127","num_nodes":"27","size_leaf_vector":"1"}},{"base_weights":[1.5360502E-2,-4.2005503E-1,5.814713E0,-4.862452E-1,1.7521117E0,2.2353485E0,-1.567532E-1,6.898883E-1,-5.178169E-1,2.1506767E0,-1.5777272E-1,-1.578318E-1,2.0446248E0,3.9766932E0,-5.2890223E-1,1.7339449E0,-1.0210697E-1,-5.342425E-1,-1.5376752E-2,-1.6333943E-2,-1.6064721E-1,-1.5412644E-1,1.3904924E0],"categories":[],"categories_nodes":[],"categories_segments":[],"categories_sizes":[],"default_left":[0,0,0,0,0,0,0,0,0,0,0,0,0,0,1,0,0,0,0,0,0,0,0],"id":13,"left_children":[1,3,5,7,9,-1,-1,11,13,-1,-1,-1,-1,15,17,-1,-1,19,21,-1,-1,-1,-1],"loss_changes":[6.9835693E3,3.707188E2,2.0068823E3,9.3085754E1,9.451451E2,0E0,0E0,4.9304184E2,1.2329883E2,0E0,0E0,0E0,0E0,4.9467957E1,6.6488037E0,0E0,0E0,1.4095459E0,6.26706E1,0E0,0E0,0E0,0E0],"parents":[2147483647,0,0,1,1,2,2,3,3,4,4,7,7,8,8,13,13,14,14,17,17,18,18],"right_children":[2,4,6,8,10,-1,-1,12,14,-1,-1,-1,-1,16,18,-1,-1,20,22,-1,-1,-1,-1],"split_conditions":[9.0039E-1,8.401843E-1,7.606786E-1,-1.8607996E0,4.4401816E-1,2.2353485E0,-1.567532E-1,-8.013981E-3,-2.0576808E0,2.1506767E0,-1.5777272E-1,-1.578318E-1,2.0446248E0,-1.4752501E-1,7.216713E-1,1.7339449E0,-1.0210697E-1,-1.8684257E0,6.043053E-1,-1.6333943E-2,-1.6064721E-1,-1.5412644E-1,1.3904924E0],"split_indices":[80,80,101,62,98,0,0,14,38,0,0,0,0,1,120,0,0,35,3,0,0,0,0],"split_type":[0,0,0,0,0,0,0,0,0,0,0,0,0,0,0,0,0,0,0,0,0,0,0],"sum_hessian":[2.7636624E3,2.5715203E3,1.9214224E2,2.4962312E3,7.5288895E1,1.5256891E2,3.9573338E1,6.471111E1,2.4315203E3,2.1653336E1,5.363556E1,5.475556E1,9.955557E0,5.1022224E0,2.426418E3,3.3600004E0,1.7422223E0,2.4014045E3,2.5013336E1,6.3466673E0,2.3950579E3,2.3395557E1,1.617778E0],"tree_param":{"num_deleted":"0","num_feature":"127","num_nodes":"23","size_leaf_vector":"1"}},{"base_weights":[-4.385828E-1,-4.9724403E-1,5.7071155E-1,-2.0291448E-1,-5.282943E-1,3.9041092E0,-1.5932119E-1,-5.1910913E-1,1.5250766E0,3.1120327E-1,-5.299763E-1,6.945156E0,-1.5093318E-1,-2.0159598E-1,-1.5992394E-1,5.8670063E0,-2.3883136E-1,-1.227702E-1,4.8113206E-1,-5.337281E-1,-4.1071948E-1,2.1449034E0,4.8113206E-1,-1.4372946E-1,3.3962265E-1,2.0240963E0,-9.287055E-2,-1.5409267E-1,1.0218977E0,-3.6763152E-1,-1.6051076E-1,9.7680634E-1,-5.006454E-1,1.0471698E0,-1.23853214E-1,2.870544E-1,-1.5254238E-1,9.0566033E-1,-1.19102426E-1,-1.1749353E-2,-1.5835777E-1],"categories":[],"categories_nodes":[],"categories_segments":[],"categories_sizes":[],"default_left":[0,0,0,0,0,0,0,0,0,0,0,0,0,0,0,0,0,0,0,0,0,0,0,0,0,0,0,0,0,0,0,0,0,0,0,0,0,0,0,0,0],"id":14,"left_children":[1,3,5,7,9,11,-1,13,15,17,19,21,-1,23,-1,25,27,-1,-1,29,31,-1,-1,-1,-1,-1,-1,-1,33,35,-1,37,39,-1,-1,-1,-1,-1,-1,-1,-1],"loss_changes":[1.639696E2,2.3776123E1,5.615121E2,1.3793832E2,3.5019531E0,5.122555E2,0E0,8.3706284E-1,3.0070578E2,5.643497E0,8.363037E-1,1.3144775E1,0E0,4.4588213E0,0E0,6.3664185E1,1.0486058E1,0E0,0E0,2.9925537E-1,1.0007944E1,0E0,0E0,0E0,0E0,0E0,0E0,0E0,2.0850681E1,4.4105835E0,0E0,1.5175708E1,8.874016E-1,0E0,0E0,0E0,0E0,0E0,0E0,0E0,0E0],"parents":[2147483647,0,0,1,1,2,2,3,3,4,4,5,5,7,7,8,8,9,9,10,10,11,11,13,13,15,15,16,16,19,19,20,20,28,28,29,29,31,31,32,32],"right_children":[2,4,6,8,10,12,-1,14,16,18,20,22,-1,24,-1,26,28,-1,-1,30,32,-1,-1,-1,-1,-1,-1,-1,34,36,-1,38,40,-1,-1,-1,-1,-1,-1,-1,-1],"split_conditions":[1.3654529E0,-1.3057027E0,5.434334E-1,3.8955525E-1,-1.9433881E0,-3.2830376E-2,-1.5932119E-1,1.64076E-2,4.415792E-1,-6.9115776E-1,1.152323E0,1.4333227E0,-1.5093318E-1,3.0669509E-2,-1.5992394E-1,5.434334E-1,1.1855668E0,-1.227702E-1,4.8113206E-1,-1.2843188E0,8.112497E-1,2.1449034E0,4.8113206E-1,-1.4372946E-1,3.3962265E-1,2.0240963E0,-9.287055E-2,-1.5409267E-1,-8.900877E-2,4.9187973E-2,-1.6051076E-1,-4.3883532E-2,9.5746326E-1,1.0471698E0,-1.23853214E-1,2.870544E-1,-1.5254238E-1,9.0566033E-1,-1.19102426E-1,-1.1749353E-2,-1.5835777E-1],"split_indices":[30,3,0,57,32,2,0,51,51,1,30,6,0,18,0,0,45,0,0,3,27,0,0,0,0,0,0,0,2,51,0,2,27,0,0,0,0,0,0,0,0],"split_type":[0,0,0,0,0,0,0,0,0,0,0,0,0,0,0,0,0,0,0,0,0,0,0,0,0,0,0,0,0,0,0,0,0,0,0,0,0,0,0,0,0],"sum_hessian":[2.7636624E3,2.612338E3,1.5132446E2,2.5000891E2,2.362329E3,3.6960003E1,1.14364456E2,2.1192891E2,3.808E1,4.355556E0,2.3579736E3,2.152889E1,1.5431112E1,9.582223E0,2.0234668E2,1.032889E1,2.7751114E1,3.235556E0,1.1200001E0,2.2826846E3,7.5288895E1,2.040889E1,1.1200001E0,8.462223E0,1.1200001E0,8.960001E0,1.368889E0,2.3271112E1,4.4800005E0,2.0035557E1,2.2626492E3,3.9822226E0,7.130667E1,1.1200001E0,3.3600004E0,1.368889E0,1.8666668E1,1.1200001E0,2.8622224E0,4.106667E0,6.7200005E1],"tree_param":{"num_deleted":"0","num_feature":"127","num_nodes":"41","size_leaf_vector":"1"}},{"base_weights":[3.4527563E-2,-4.0102994E-1,8.0333066E-1,7.081113E-1,-4.8268655E-1,1.0980285E0,-4.891021E-1,-1.5219367E-1,1.1218723E0,3.0963808E-1,-5.058438E-1,1.1655753E0,-1.5475081E-1,2.5022918E-1,-5.070612E-1,-1.2773865E-1,1.2165916E0,2.4460728E0,-1.5164123E-1,5.6173253E-1,-5.178386E-1,-1.5132216E-1,1.179857E0,2.0310073E-1,-1.5574728E-1,3.5270843E-1,6.28297E-1,1.9627647E-1,2.9673007E0,2.2962554E0,-1.435093E-1,-5.191713E-1,9.610068E-2,-1.06996864E-1,1.1835587E0,1.4371074E0,5.5325705E-1,8.939307E-1,2.5889507E-1,-1.7793259E-2,-1.563933E-1,1.6052429E-2,3.5567254E-1],"categories":[],"categories_nodes":[],"categories_segments":[],"categories_sizes":[],"default_left":[1,0,0,0,0,0,0,0,0,0,0,0,0,0,0,0,0,0,0,0,0,0,0,0,0,0,0,0,0,0,0,0,0,0,0,0,0,0,0,0,0,0,0],"id":15,"left_children":[1,3,5,7,9,11,13,-1,15,17,19,21,-1,-1,23,-1,25,27,-1,29,31,-1,33,-1,-1,-1,-1,-1,35,37,-1,39,-1,-1,41,-1,-1,-1,-1,-1,-1,-1,-1],"loss_changes":[8.17202E2,1.4143959E2,3.3668872E2,5.44975E1,2.6792023E1,7.898096E1,4.3336296E0,0E0,1.2291374E1,7.4103836E1,1.8357025E1,1.706195E1,0E0,0E0,2.6859016E0,0E0,2.6371002E-1,9.010933E0,0E0,3.0243114E1,1.7253723E0,0E0,4.317444E0,0E0,0E0,0E0,0E0,0E0,9.186661E0,3.5300903E0,0E0,1.3405457E0,0E0,0E0,1.4939575E0,0E0,0E0,0E0,0E0,0E0,0E0,0E0,0E0],"parents":[2147483647,0,0,1,1,2,2,3,3,4,4,5,5,6,6,8,8,9,9,10,10,11,11,14,14,16,16,17,17,19,19,20,20,22,22,28,28,29,29,31,31,34,34],"right_children":[2,4,6,8,10,12,14,-1,16,18,20,22,-1,-1,24,-1,26,28,-1,30,32,-1,34,-1,-1,-1,-1,-1,36,38,-1,40,-1,-1,42,-1,-1,-1,-1,-1,-1,-1,-1],"split_conditions":[6.8717897E-1,-1.6898516E0,-2.2166231E-1,5.06327E-1,-1.4820704E0,3.2249263E-1,4.676967E-1,-1.5219367E-1,-1.6106548E0,-6.7629343E-1,-1.8577547E0,4.9830717E-1,-1.5475081E-1,2.5022918E-1,5.434317E-1,-1.2773865E-1,-2.446864E-1,-1.4912606E0,-1.5164123E-1,-6.5269595E-1,9.401834E-1,-1.5132216E-1,-1.3358812E0,2.0310073E-1,-1.5574728E-1,3.5270843E-1,6.28297E-1,1.9627647E-1,6.246528E-1,7.186789E-1,-1.435093E-1,-1.7596607E0,9.610068E-2,-1.06996864E-1,-9.99663E-1,1.4371074E0,5.5325705E-1,8.939307E-1,2.5889507E-1,-1.7793259E-2,-1.563933E-1,1.6052429E-2,3.5567254E-1],"split_indices":[118,43,3,81,17,58,69,0,1,6,28,102,0,0,66,0,3,41,0,5,64,0,2,0,0,0,0,0,72,98,0,28,0,0,13,0,0,0,0,0,0,0,0],"split_type":[0,0,0,0,0,0,0,0,0,0,0,0,0,0,0,0,0,0,0,0,0,0,0,0,0,0,0,0,0,0,0,0,0,0,0,0,0,0,0,0,0,0,0],"sum_hessian":[2.4384817E3,1.556909E3,8.815725E2,1.0623586E2,1.4506732E3,7.1800494E2,1.6356757E2,2.6923107E1,7.931275E1,4.0843517E1,1.4098297E3,6.8942737E2,2.8577559E1,1.5817559E0,1.6198581E2,4.372519E0,7.494023E1,1.07269125E1,3.0116604E1,1.5154938E1,1.3946748E3,5.5549984E0,6.838724E2,1.082245E0,1.6090356E2,7.383925E1,1.1009812E0,2.925428E0,7.8014846E0,5.2282643E0,9.926674E0,1.3928407E3,1.8340714E0,1.4144181E0,6.8245795E2,1.7292571E0,6.0722275E0,2.8094616E0,2.4188025E0,6.583817E0,1.386257E3,1.264673E0,6.811933E2],"tree_param":{"num_deleted":"0","num_feature":"127","num_nodes":"43","size_leaf_vector":"1"}},{"base_weights":[1.4124032E-2,-4.6504885E-1,9.3399876E-1,-4.9550456E-1,6.2337357E-1,-1.5499622E-1,1.1150011E0,-5.1480764E-1,-9.218842E-2,-4.1179368E-1,1.4939833E0,1.1468633E0,-1.4828779E-1,-5.167461E-1,7.717074E-2,1.14618E0,-4.9660286E-1,-1.484962E-1,9.1588825E-2,-1.17135175E-1,5.0458467E-1,-1.3731678E-1,1.1599001E0,-1.5575811E-1,-3.3860433E-1,3.4909198E-1,-1.2320373E-1,1.7749549E0,-1.3009857E-1,-1.537718E-1,1.3367623E-2,-1.07171394E-1,1.1649508E0,2.3441266E-1,-1.4917378E-1,9.053068E-1,3.9786837E-1,-3.6143098E-2,3.5067934E-1],"categories":[],"categories_nodes":[],"categories_segments":[],"categories_sizes":[],"default_left":[0,0,0,0,0,0,0,0,0,0,0,0,0,0,0,0,0,0,0,0,0,0,0,0,0,0,0,0,0,0,0,0,0,0,0,0,0,0,0],"id":16,"left_children":[1,3,5,7,9,-1,11,13,15,17,19,21,-1,23,25,27,29,-1,-1,-1,-1,-1,31,-1,33,-1,-1,35,-1,-1,-1,-1,37,-1,-1,-1,-1,-1,-1],"loss_changes":[1.0646012E3,5.295108E1,2.1778162E2,1.1983795E1,3.9971535E1,0E0,3.829419E1,1.7320251E0,3.6529545E1,1.3880167E0,9.135166E0,1.5629761E1,0E0,4.6514893E-1,3.4900386E0,1.862914E1,4.9664974E-1,0E0,0E0,0E0,0E0,0E0,5.904785E0,0E0,4.439024E0,0E0,0E0,3.278881E0,0E0,0E0,0E0,0E0,3.7944946E0,0E0,0E0,0E0,0E0,0E0,0E0],"parents":[2147483647,0,0,1,1,2,2,3,3,4,4,6,6,7,7,8,8,9,9,10,10,11,11,13,13,14,14,15,15,16,16,22,22,24,24,27,27,32,32],"right_children":[2,4,6,8,10,-1,12,14,16,18,20,22,-1,24,26,28,30,-1,-1,-1,-1,-1,32,-1,34,-1,-1,36,-1,-1,-1,-1,38,-1,-1,-1,-1,-1,-1],"split_conditions":[1.0121596E0,7.0223004E-1,4.3205073E-1,8.524295E-1,4.40575E-2,-1.5499622E-1,7.675219E-1,6.9709873E-1,-9.7815734E-1,-1.5650667E-2,1.5919656E-1,5.1053566E-1,-1.4828779E-1,8.106059E-1,3.8701636E-1,5.4926664E-1,1.1517084E0,-1.484962E-1,9.1588825E-2,-1.17135175E-1,5.0458467E-1,-1.3731678E-1,5.3451735E-1,-1.5575811E-1,-1.1155661E0,3.4909198E-1,-1.2320373E-1,5.9120923E-1,-1.3009857E-1,-1.537718E-1,1.3367623E-2,-1.07171394E-1,2.5715587E-1,2.3441266E-1,-1.4917378E-1,9.053068E-1,3.9786837E-1,-3.6143098E-2,3.5067934E-1],"split_indices":[9,84,64,9,6,0,112,84,1,6,18,81,0,9,124,112,5,0,0,0,0,0,69,0,28,0,0,69,0,0,0,0,89,0,0,0,0,0,0],"split_type":[0,0,0,0,0,0,0,0,0,0,0,0,0,0,0,0,0,0,0,0,0,0,0,0,0,0,0,0,0,0,0,0,0,0,0,0,0,0,0],"sum_hessian":[2.4132866E3,1.5870626E3,8.26224E2,1.544393E3,4.2669724E1,9.144875E1,7.347752E2,1.4735891E3,7.0803795E1,1.9733416E1,2.2936306E1,7.2079175E2,1.3983515E1,1.4689062E3,4.682951E0,1.6978699E1,5.38251E1,1.7959555E1,1.7738613E0,1.9826062E0,2.09537E1,5.534105E0,7.152576E2,1.447109E3,2.1797125E1,1.0218939E0,3.6610572E0,1.2056661E1,4.9220366E0,5.2333557E1,1.4915416E0,2.1419578E0,7.1311566E2,2.2173858E0,1.9579739E1,1.6797242E0,1.0376937E1,2.110954E0,7.110047E2],"tree_param":{"num_deleted":"0","num_feature":"127","num_nodes":"39","size_leaf_vector":"1"}},{"base_weights":[3.4048222E-2,7.4681205E-1,-1.5645517E-1,9.1396624E-1,-3.9306268E-1,2.560944E-1,1.1156387E0,1.1423477E0,-4.374426E-1,1.1303073E0,-5.122845E-1,-3.6844745E-1,1.1726286E0,4.0405273E-1,1.2810902E-1,-1.8539261E-2,-5.115139E-1,-1.351761E-1,1.2027715E0,1.0205267E-1,-5.281292E-1,3.6955094E-1,-1.629344E-1,1.1908834E0,-1.4399634E-1,-4.3076456E-1,7.6784724E-1,-1.5563673E-1,-8.0088E-2,2.1923372E-1,-1.5866718E-1,3.6906102E-1,-1.1143049E-1,-6.991678E-2,-1.6098112E-1,3.9543542E-1,3.1093058E-1,-1.4552827E-1,4.2468175E-2,-8.979953E-2,3.1266904E-1,4.566704E-2,-8.046311E-2],"categories":[],"categories_nodes":[],"categories_segments":[],"categories_sizes":[],"default_left":[0,0,0,0,0,0,0,0,0,0,0,0,0,0,0,0,0,0,0,0,0,0,0,0,0,0,0,0,0,0,0,0,0,0,0,0,0,0,0,0,0,0,0],"id":17,"left_children":[1,3,-1,5,7,9,11,13,15,17,19,21,23,-1,-1,25,27,29,31,-1,33,-1,-1,35,-1,37,39,-1,41,-1,-1,-1,-1,-1,-1,-1,-1,-1,-1,-1,-1,-1,-1],"loss_changes":[9.619843E2,2.0310724E2,0E0,1.2287805E2,9.820469E0,1.4775818E2,6.05E1,2.7456284E-2,4.1380024E0,9.590134E0,1.7640152E0,8.222942E0,2.1212158E1,0E0,0E0,7.177662E0,3.148327E-1,2.5913641E0,4.660385E0,0E0,1.6388702E-1,0E0,0E0,1.1937683E1,0E0,5.19474E-1,2.5442371E0,0E0,1.7479987E-1,0E0,0E0,0E0,0E0,0E0,0E0,0E0,0E0,0E0,0E0,0E0,0E0,0E0,0E0],"parents":[2147483647,0,0,1,1,3,3,4,4,5,5,6,6,7,7,8,8,9,9,10,10,11,11,12,12,15,15,16,16,17,17,18,18,20,20,23,23,25,25,26,26,28,28],"right_children":[2,4,-1,6,8,10,12,14,16,18,20,22,24,-1,-1,26,28,30,32,-1,34,-1,-1,36,-1,38,40,-1,42,-1,-1,-1,-1,-1,-1,-1,-1,-1,-1,-1,-1,-1,-1],"split_conditions":[5.434334E-1,4.9800187E-1,-1.5645517E-1,-9.220653E-1,-1.2783626E0,-7.07321E-2,-1.4598314E0,2.6373523E-1,5.984668E-1,-9.325439E-1,-8.510383E-1,-1.4102689E0,1.046485E0,4.0405273E-1,1.2810902E-1,9.9558467E-1,2.49023E0,-1.4278563E0,6.18196E-1,1.0205267E-1,3.5312288E-2,3.6955094E-1,-1.629344E-1,-2.9139772E-1,-1.4399634E-1,2.0196795E0,1.0144187E0,-1.5563673E-1,4.787304E-1,2.1923372E-1,-1.5866718E-1,3.6906102E-1,-1.1143049E-1,-6.991678E-2,-1.6098112E-1,3.9543542E-1,3.1093058E-1,-1.4552827E-1,4.2468175E-2,-8.979953E-2,3.1266904E-1,4.566704E-2,-8.046311E-2],"split_indices":[0,54,0,26,4,17,6,2,54,59,20,16,63,0,0,30,40,3,11,0,17,0,0,20,0,28,25,0,5,0,0,0,0,0,0,0,0,0,0,0,0,0,0],"split_type":[0,0,0,0,0,0,0,0,0,0,0,0,0,0,0,0,0,0,0,0,0,0,0,0,0,0,0,0,0,0,0,0,0,0,0,0,0,0,0,0,0,0,0],"sum_hessian":[2.4273499E3,1.0630996E3,1.3642501E3,9.273141E2,1.3578557E2,2.1810565E2,7.0920844E2,3.1195178E0,1.3266605E2,1.018061E2,1.1629955E2,2.6024878E1,6.8318353E2,1.7393998E0,1.380118E0,2.0121431E1,1.1254462E2,5.467027E0,9.633907E1,1.7486931E0,1.14550865E2,1.9654185E0,2.4059458E1,6.759959E2,7.1876235E0,1.3497985E1,6.6234465E0,1.104791E2,2.0655107E0,1.441158E0,4.0258694E0,9.490382E1,1.4352535E0,3.9937377E0,1.1055713E2,3.6652103E2,3.0947488E2,1.2466938E1,1.0310462E0,1.3360631E0,5.287383E0,1.0095943E0,1.0559163E0],"tree_param":{"num_deleted":"0","num_feature":"127","num_nodes":"43","size_leaf_vector":"1"}},{"base_weights":[1.9943437E-2,-4.9784657E-1,4.125923E-1,-5.1988316E-1,-1.4935611E-1,8.1137604E-1,-4.3235105E-1,-1.5654998E-1,-3.857654E-1,4.2328346E-1,-1.535362E-1,-4.8431355E-1,1.0951611E0,-1.22726625E-2,-4.9602312E-1,-1.4745232E-1,1.9908479E-1,-1.5560403E-1,9.683744E-1,1.1543043E0,-4.811078E-1,-1.5263E-1,1.0463746E0,-5.157378E-1,-8.503178E-2,5.62638E-1,-9.66992E-2,-1.4595897E-1,1.1842172E0,-1.5285923E-1,4.3914106E-2,1.05186455E-1,3.2541803E-1,-2.4528208E-1,-1.5538454E-1,-4.385819E-1,4.586249E-1,-1.0527936E-1,3.5973904E-1,4.4497915E-2,-1.15793325E-1,-1.4619309E-1,4.283732E-2],"categories":[],"categories_nodes":[],"categories_segments":[],"categories_sizes":[],"default_left":[0,0,0,0,0,0,0,0,0,0,0,0,0,0,0,0,0,0,0,0,0,0,0,0,0,0,0,0,0,0,0,0,0,0,0,0,0,0,0,0,0,0,0],"id":18,"left_children":[1,3,5,7,9,11,13,-1,15,-1,-1,17,19,21,23,-1,-1,-1,25,27,29,-1,31,33,35,-1,-1,-1,37,-1,-1,-1,-1,39,-1,41,-1,-1,-1,-1,-1,-1,-1],"loss_changes":[4.9112726E2,7.9230957E0,4.6325934E2,5.4870605E-2,3.6554825E1,3.4383917E2,1.1793434E1,0E0,2.3093834E0,0E0,0E0,8.911797E0,7.198712E1,3.1590862E1,3.059906E0,0E0,0E0,0E0,5.5705986E0,3.683844E1,5.8138037E-1,0E0,1.3178825E-1,9.137726E-2,1.1357579E1,0E0,0E0,0E0,1.7038635E1,0E0,0E0,0E0,0E0,3.264752E-1,0E0,5.268769E-1,0E0,0E0,0E0,0E0,0E0,0E0,0E0],"parents":[2147483647,0,0,1,1,2,2,3,3,4,4,5,5,6,6,8,8,11,11,12,12,13,13,14,14,18,18,19,19,20,20,22,22,23,23,24,24,28,28,33,33,35,35],"right_children":[2,4,6,8,10,12,14,-1,16,-1,-1,18,20,22,24,-1,-1,-1,26,28,30,-1,32,34,36,-1,-1,-1,38,-1,-1,-1,-1,40,-1,42,-1,-1,-1,-1,-1,-1,-1],"split_conditions":[5.26289E-1,4.9039072E-1,5.0199664E-1,4.8202258E-1,1.6673374E-1,-9.298369E-1,5.458969E-1,-1.5654998E-1,3.3654422E-1,4.2328346E-1,-1.535362E-1,7.71571E-1,2.8362435E-1,8.602914E-1,1.2793756E0,-1.4745232E-1,1.9908479E-1,-1.5560403E-1,-5.388831E-1,3.3788446E-1,8.978618E-1,-1.5263E-1,2.0514673E-2,5.4838187E-1,1.5530835E0,5.62638E-1,-9.66992E-2,-1.4595897E-1,5.434326E-1,-1.5285923E-1,4.3914106E-2,1.05186455E-1,3.2541803E-1,-4.557153E-1,-1.5538454E-1,1.3455944E0,4.586249E-1,-1.0527936E-1,3.5973904E-1,4.4497915E-2,-1.15793325E-1,-1.4619309E-1,4.283732E-2],"split_indices":[71,71,89,71,89,5,89,0,2,0,0,18,26,98,13,0,0,0,1,101,65,0,53,89,47,0,0,0,66,0,0,0,0,54,0,50,0,0,0,0,0,0,0],"split_type":[0,0,0,0,0,0,0,0,0,0,0,0,0,0,0,0,0,0,0,0,0,0,0,0,0,0,0,0,0,0,0,0,0,0,0,0,0,0,0,0,0,0,0],"sum_hessian":[2.413651E3,1.04083E3,1.3728209E3,9.784655E2,6.2364475E1,9.3267206E2,4.4014893E2,9.6159296E2,1.687256E1,1.1210256E1,5.115422E1,1.6744673E2,7.6522534E2,5.809016E1,3.8205878E2,1.5810968E1,1.0615916E0,1.6420505E2,3.241686E0,7.3780963E2,2.7415655E1,3.98979E1,1.819226E1,3.6432764E2,1.7731133E1,1.6376928E0,1.6039933E0,1.2936386E1,7.248733E2,2.6407476E1,1.0081794E0,1.4802839E0,1.6711977E1,3.8614914E0,3.6046613E2,1.5142019E1,2.5891137E0,6.757111E0,7.1811615E2,1.0025458E0,2.8589456E0,1.4120305E1,1.0217141E0],"tree_param":{"num_deleted":"0","num_feature":"127","num_nodes":"43","size_leaf_vector":"1"}},{"base_weights":[3.4392063E-2,-4.7294164E-1,5.074908E-1,-5.0578296E-1,9.4564646E-1,7.5359863E-1,-4.2488098E-1,-5.176555E-1,-6.2347047E-2,-1.3602623E-1,1.3308988E0,1.0417264E0,-3.2056633E-1,-4.6733785E-1,1.0250105E0,-1.5655035E-1,-3.990751E-1,1.165284E0,-1.5002772E-1,4.2875725E-1,-8.156251E-2,-4.626953E-1,1.1413163E0,-4.932042E-1,3.9180753E-1,-4.9139455E-1,2.851779E-1,2.7386932E-2,3.5573447E-1,4.609081E-1,-1.5257391E-1,3.5605032E-2,3.9202365E-1,2.0792143E-1,-1.5378988E-1,1.1600429E0,-1.4222582E-1,-5.132111E-1,1.2779264E-1,3.325054E-1,-5.1294386E-1,-9.586776E-2,3.518849E-1,-2.7618168E-2,-1.5689258E-1,4.7288093E-1,-1.2896734E-1,3.8706446E-1,-1.2418353E-1,-1.5497828E-1,-1.6062211E-3],"categories":[],"categories_nodes":[],"categories_segments":[],"categories_sizes":[],"default_left":[0,0,0,0,0,0,0,0,0,0,0,0,0,0,0,0,0,0,0,0,0,0,0,0,0,0,0,0,0,0,0,0,0,0,0,0,0,0,0,0,0,0,0,0,0,0,0,0,0,0,0],"id":19,"left_children":[1,3,5,7,9,11,13,15,17,-1,19,21,23,25,27,-1,29,31,-1,-1,-1,33,35,37,-1,39,-1,-1,-1,-1,-1,-1,-1,-1,-1,41,-1,43,45,47,49,-1,-1,-1,-1,-1,-1,-1,-1,-1,-1],"loss_changes":[5.823652E2,5.5025696E1,2.8841025E2,5.995819E0,1.5070541E1,3.0786884E2,1.665826E1,3.442688E-1,1.723843E1,0E0,3.7441292E0,1.1795148E2,5.9874557E1,9.200821E0,1.0612364E0,0E0,9.7269535E0,1.0955191E0,0E0,0E0,0E0,3.2048635E0,2.2795471E1,2.4437447E0,0E0,4.6522636E0,0E0,0E0,0E0,0E0,0E0,0E0,0E0,0E0,0E0,1.4262512E1,0E0,7.1523666E-1,6.1504083E0,5.567362E0,4.5375824E-1,0E0,0E0,0E0,0E0,0E0,0E0,0E0,0E0,0E0,0E0],"parents":[2147483647,0,0,1,1,2,2,3,3,4,4,5,5,6,6,7,7,8,8,10,10,11,11,12,12,13,13,14,14,16,16,17,17,21,21,22,22,23,23,25,25,35,35,37,37,38,38,39,39,40,40],"right_children":[2,4,6,8,10,12,14,16,18,-1,20,22,24,26,28,-1,30,32,-1,-1,-1,34,36,38,-1,40,-1,-1,-1,-1,-1,-1,-1,-1,-1,42,-1,44,46,48,50,-1,-1,-1,-1,-1,-1,-1,-1,-1,-1],"split_conditions":[5.7033324E-1,9.556725E-1,5.4343295E-1,8.410805E-1,1.9246791E-1,6.222204E-1,1.2278897E0,8.674614E-1,-6.821379E-1,-1.3602623E-1,1.0022956E0,-3.539923E-1,1.4045473E0,8.93148E-1,-8.664485E-2,-1.5655035E-1,-5.3748614E-1,-1.908897E-1,-1.5002772E-1,4.2875725E-1,-8.156251E-2,-7.1877563E-1,3.7381172E-1,5.4343265E-1,3.9180753E-1,2.4390574E-1,2.851779E-1,2.7386932E-2,3.5573447E-1,4.609081E-1,-1.5257391E-1,3.5605032E-2,3.9202365E-1,2.0792143E-1,-1.5378988E-1,5.3754216E-1,-1.4222582E-1,6.022532E-1,7.568686E-1,-7.4693424E-1,8.760288E-1,-9.586776E-2,3.518849E-1,-2.7618168E-2,-1.5689258E-1,4.7288093E-1,-1.2896734E-1,3.8706446E-1,-1.2418353E-1,-1.5497828E-1,-1.6062211E-3],"split_indices":[81,64,66,67,6,33,35,64,16,0,20,3,25,79,21,0,20,22,0,0,0,23,49,66,0,116,0,0,0,0,0,0,0,0,0,114,0,96,36,1,67,0,0,0,0,0,0,0,0,0,0],"split_type":[0,0,0,0,0,0,0,0,0,0,0,0,0,0,0,0,0,0,0,0,0,0,0,0,0,0,0,0,0,0,0,0,0,0,0,0,0,0,0,0,0,0,0,0,0,0,0,0,0,0,0],"sum_hessian":[2.4243298E3,1.1698385E3,1.2544913E3,1.1439977E3,2.5840904E1,9.926613E2,2.6183005E2,1.1140039E3,2.9993671E1,5.5411043E0,2.02998E1,7.827352E2,2.099261E2,2.5503944E2,6.7905874E0,1.0727957E3,4.120833E1,7.4469957E0,2.2546677E1,1.9228868E1,1.0709318E0,4.8372116E1,7.343631E2,1.904134E2,1.9512693E1,2.5142715E2,3.6122913E0,1.2277753E0,5.562812E0,1.5089173E0,3.969941E1,1.1056722E0,6.3413234E0,1.470058E0,4.6902058E1,7.262262E2,8.136931E0,1.8463841E2,5.77499E0,6.0407143E0,2.4538644E2,6.0747094E0,7.201515E2,4.42007E0,1.8021835E2,1.0976349E0,4.6773553E0,2.3268533E0,3.713861E0,2.4361671E2,1.7697289E0],"tree_param":{"num_deleted":"0","num_feature":"127","num_nodes":"51","size_leaf_vector":"1"}},{"base_weights":[2.3559952E-2,9.358879E-1,-4.3255445E-1,-1.5592715E-1,1.1147317E0,-5.022737E-1,8.79871E-1,1.1729827E0,-1.5171427E-1,-5.1816815E-1,-2.1816154E-1,-1.4792734E-1,1.2030878E0,-1.3829625E-1,1.1804516E0,-5.198496E-1,1.6184802E-1,-4.729786E-1,1.0225894E0,1.3052293E0,-1.24642305E-1,3.4716737E-1,1.4311919E0,-1.5612267E-1,-2.9842818E-1,-5.0116825E-1,2.072353E-1,1.7796429E0,-1.2954381E-1,2.140069E0,3.6309555E-1,4.3593204E-1,4.2254996E-2,-1.249395E-1,4.099923E-2,-1.5465766E-1,2.3032881E-2,3.6407724E-1,9.1123897E-1,8.284841E-1,2.2695866E-1],"categories":[],"categories_nodes":[],"categories_segments":[],"categories_sizes":[],"default_left":[0,0,0,0,0,0,0,0,0,0,0,0,0,0,0,0,0,0,0,0,0,0,0,0,0,0,0,0,0,0,0,0,0,0,0,0,0,0,0,0,0],"id":20,"left_children":[1,3,5,-1,7,9,11,13,-1,15,17,-1,19,-1,21,23,-1,25,27,29,-1,-1,31,-1,33,35,-1,37,-1,39,-1,-1,-1,-1,-1,-1,-1,-1,-1,-1,-1],"loss_changes":[1.01211206E3,2.1162494E2,1.4881848E2,0E0,6.8772095E1,6.8431396E0,3.705306E1,9.056763E0,0E0,2.8735657E0,2.6832466E1,0E0,1.1584991E1,0E0,2.3893433E0,2.5024414E-2,0E0,2.6368294E0,1.6751087E1,2.407318E0,0E0,0E0,1.3411942E0,0E0,3.657322E-1,6.1005783E-1,0E0,3.2497978E0,0E0,2.327961E0,0E0,0E0,0E0,0E0,0E0,0E0,0E0,0E0,0E0,0E0,0E0],"parents":[2147483647,0,0,1,1,2,2,4,4,5,5,6,6,7,7,9,9,10,10,12,12,14,14,15,15,17,17,18,18,19,19,22,22,24,24,25,25,27,27,29,29],"right_children":[2,4,6,-1,8,10,12,14,-1,16,18,-1,20,-1,22,24,-1,26,28,30,-1,-1,32,-1,34,36,-1,38,-1,40,-1,-1,-1,-1,-1,-1,-1,-1,-1,-1,-1],"split_conditions":[-1.0159864E0,5.5731595E-1,1.8202858E0,-1.5592715E-1,4.848461E-1,1.3015037E0,7.9511327E-1,-5.546793E-1,-1.5171427E-1,2.0946865E0,5.434332E-1,-1.4792734E-1,1.8842417E-1,-1.3829625E-1,-1.3120042E0,1.8307732E0,1.6184802E-1,9.568611E-1,4.5232767E-1,5.4343307E-1,-1.24642305E-1,3.4716737E-1,5.1395607E-1,-1.5612267E-1,-4.2929956E-1,1.7685245E0,2.072353E-1,1.6202163E0,-1.2954381E-1,1.8307732E0,3.6309555E-1,4.3593204E-1,4.2254996E-2,-1.249395E-1,4.099923E-2,-1.5465766E-1,2.3032881E-2,3.6407724E-1,9.1123897E-1,8.284841E-1,2.2695866E-1],"split_indices":[42,89,53,0,65,32,101,14,0,3,66,0,65,0,42,3,0,3,81,66,0,0,81,0,15,53,0,20,0,3,0,0,0,0,0,0,0,0,0,0,0],"split_type":[0,0,0,0,0,0,0,0,0,0,0,0,0,0,0,0,0,0,0,0,0,0,0,0,0,0,0,0,0,0,0,0,0,0,0,0,0,0,0,0,0],"sum_hessian":[2.430253E3,8.09675E2,1.6205779E3,8.838507E1,7.212899E2,1.5394175E3,8.116034E1,6.965276E2,2.4762333E1,1.4570786E3,8.23389E1,1.5365424E1,6.5794914E1,2.8930721E0,6.936345E2,1.4552736E3,1.8051174E0,6.882324E1,1.3515656E1,6.20714E1,3.7235112E0,6.3996686E2,5.3667686E1,1.4502604E3,5.013141E0,6.7751465E1,1.0717795E0,8.7417345E0,4.773922E0,4.136689E0,5.793471E1,5.2647396E1,1.020292E0,3.9770215E0,1.0361198E0,6.621457E1,1.5368963E0,7.383708E0,1.3580267E0,2.1670918E0,1.9695975E0],"tree_param":{"num_deleted":"0","num_feature":"127","num_nodes":"41","size_leaf_vector":"1"}},{"base_weights":[2.2634301E-2,6.4555836E-1,-2.5813496E-1,-4.7724143E-1,9.94789E-1,4.3208343E-1,-4.0818444E-1,9.583965E-1,-5.154396E-1,-1.554788E-1,1.3106396E0,-3.2011905E-1,1.0902648E0,-4.7553092E-1,7.630779E-1,-1.012988E-1,5.531856E-1,6.381522E-2,-1.5638834E-1,-1.5072794E-1,1.3921992E0,-4.6623564E-1,1.0984006E0,-1.483476E-1,1.2719706E0,-5.040963E-1,-9.659751E-2,-1.4872918E-1,3.6903346E-1,1.1806655E0,2.09973E0,-4.9509594E-1,6.9144344E-1,2.8920684E0,-1.3677639E-1,8.9487875E-1,1.2223002E0,-5.122958E-1,-2.4328046E-1,1.5352885E0,-1.5468217E-1,-1.0485775E-1,3.5712823E-1,1.6828734E0,5.482712E-1,-1.5256375E-1,5.482856E-2,-8.759749E-2,4.0779704E-1,1.3425807E0,4.6572888E-1,3.7522146E-1,-4.584022E-2,-8.368651E-2,-1.5467109E-1,-1.5164882E-1,1.9471635E-1,3.2266578E-1,5.644065E-1],"categories":[],"categories_nodes":[],"categories_segments":[],"categories_sizes":[],"default_left":[0,0,0,0,0,0,1,0,0,0,0,0,0,1,0,0,0,0,0,0,0,0,0,0,0,0,0,0,0,0,0,0,0,0,0,0,0,0,0,0,0,0,0,0,0,0,0,0,0,0,0,0,0,0,0,0,0,0,0],"id":21,"left_children":[1,3,5,7,9,11,13,15,17,-1,19,21,23,25,27,-1,-1,-1,-1,-1,29,31,33,-1,35,37,39,-1,-1,41,43,45,47,49,-1,-1,51,53,55,57,-1,-1,-1,-1,-1,-1,-1,-1,-1,-1,-1,-1,-1,-1,-1,-1,-1,-1,-1],"loss_changes":[4.118012E2,2.873149E2,1.6827083E2,1.0048241E1,2.6748706E2,1.4408209E2,1.0556819E2,6.206569E0,8.3717346E-1,0E0,6.904053E1,2.8753792E1,4.528102E1,1.3609863E1,4.347079E1,0E0,0E0,0E0,0E0,0E0,6.375287E1,4.493086E0,3.76245E1,0E0,8.200134E0,2.3841858E0,6.211981E1,0E0,0E0,5.5391235E0,8.581552E1,1.2033577E0,2.655703E0,6.1638603E0,0E0,0E0,5.5545654E0,7.245178E-1,9.140198E0,9.3187714E-1,0E0,0E0,0E0,0E0,0E0,0E0,0E0,0E0,0E0,0E0,0E0,0E0,0E0,0E0,0E0,0E0,0E0,0E0,0E0],"parents":[2147483647,0,0,1,1,2,2,3,3,4,4,5,5,6,6,7,7,8,8,10,10,11,11,12,12,13,13,14,14,20,20,21,21,22,22,24,24,25,25,26,26,29,29,30,30,31,31,32,32,33,33,36,36,37,37,38,38,39,39],"right_children":[2,4,6,8,10,12,14,16,18,-1,20,22,24,26,28,-1,-1,-1,-1,-1,30,32,34,-1,36,38,40,-1,-1,42,44,46,48,50,-1,-1,52,54,56,58,-1,-1,-1,-1,-1,-1,-1,-1,-1,-1,-1,-1,-1,-1,-1,-1,-1,-1,-1],"split_conditions":[-8.1924057E-1,-4.972853E-1,-1.0425357E0,-9.644523E-1,9.231437E-2,6.7089856E-1,7.07443E-1,-1.1462637E0,-2.870972E0,-1.554788E-1,-8.817035E-1,7.940737E-1,4.6272913E-1,6.602933E-1,-1.3184595E-1,-1.012988E-1,5.531856E-1,6.381522E-2,-1.5638834E-1,-1.5072794E-1,-1.1992576E0,5.828493E-1,5.7467216E-1,-1.483476E-1,-8.263625E-2,1.6527311E0,5.981231E-1,-1.4872918E-1,3.6903346E-1,-1.2136165E0,2.3031855E-1,6.32981E-1,-1.0943416E0,8.7666315E-1,-1.3677639E-1,8.9487875E-1,1.8001919E0,-7.70667E-1,5.8307844E-1,7.735203E-1,-1.5468217E-1,-1.0485775E-1,3.5712823E-1,1.6828734E0,5.482712E-1,-1.5256375E-1,5.482856E-2,-8.759749E-2,4.0779704E-1,1.3425807E0,4.6572888E-1,3.7522146E-1,-4.584022E-2,-8.368651E-2,-1.5467109E-1,-1.5164882E-1,1.9471635E-1,3.2266578E-1,5.644065E-1],"split_indices":[13,1,30,3,118,16,111,4,18,0,26,119,118,111,1,0,0,0,0,0,13,69,100,0,55,44,105,0,0,14,92,102,1,83,0,0,10,13,78,74,0,0,0,0,0,0,0,0,0,0,0,0,0,0,0,0,0,0,0],"split_type":[0,0,0,0,0,0,0,0,0,0,0,0,0,0,0,0,0,0,0,0,0,0,0,0,0,0,0,0,0,0,0,0,0,0,0,0,0,0,0,0,0,0,0,0,0,0,0,0,0,0,0,0,0,0,0,0,0,0,0],"sum_hessian":[2.3525703E3,7.3051843E2,1.6220518E3,1.732243E2,5.572941E2,2.893196E2,1.3327322E3,3.86519E0,1.693591E2,9.6133766E1,4.611604E2,1.3525598E2,1.5406364E2,1.2608297E3,7.190253E1,1.8200891E0,2.045101E0,1.0690697E0,1.6829004E2,1.962983E1,4.4153055E2,1.2323346E2,1.2022514E1,1.5670567E1,1.3839308E2,1.1721392E3,8.8690475E1,1.9440662E1,5.2461864E1,3.4196152E2,9.956903E1,1.20794464E2,2.439E0,5.181948E0,6.8405657E0,2.23828E0,1.361548E2,1.135478E3,3.666112E1,1.7575684E1,7.111479E1,1.9470941E0,3.4001443E2,5.7538853E0,9.381515E1,1.1868923E2,2.1052313E0,1.2140915E0,1.2249084E0,1.3022642E0,3.8796842E0,1.334847E2,2.6701047E0,1.6906647E1,1.1185714E3,2.8669893E1,7.991229E0,9.312425E0,8.263259E0],"tree_param":{"num_deleted":"0","num_feature":"127","num_nodes":"59","size_leaf_vector":"1"}},{"base_weights":[-8.518804E-3,-5.1322925E-1,7.6506597E-1,-5.1848E-1,-8.974753E-2,-4.2471817E-1,1.0959127E0,-2.0097639E-1,-5.1986796E-1,-1.4599617E-1,3.3296245E-1,3.897053E-1,-5.095713E-1,1.161937E0,-1.5248223E-1,2.2015756E-1,-1.3372631E-1,-1.10907696E-1,-5.205691E-1,-1.4111294E-1,3.3842036E-1,1.610642E-1,-1.5552373E-1,1.1831596E0,-1.439462E-1,7.099503E-2,-9.835019E-2,-2.6534587E-1,-1.5638055E-1,3.4732398E-1,1.3853753E0,-1.2484759E-1,7.052258E-2,5.9514415E-1,3.6263722E-1],"categories":[],"categories_nodes":[],"categories_segments":[],"categories_sizes":[],"default_left":[0,0,0,0,0,0,0,0,0,0,0,0,0,0,0,0,0,0,0,0,0,0,0,0,0,0,0,0,0,0,0,0,0,0,0],"id":22,"left_children":[1,3,5,7,9,11,13,15,17,-1,-1,19,21,23,-1,-1,-1,25,27,-1,-1,-1,-1,29,-1,-1,-1,31,-1,-1,33,-1,-1,-1,-1],"loss_changes":[9.319266E2,3.1654053E0,3.7143622E2,5.241699E-1,9.539108E0,1.44182625E1,7.8719604E1,2.1209228E0,3.493042E-1,0E0,0E0,1.3220254E1,2.0063972E0,2.5263977E1,0E0,0E0,0E0,3.5658032E-1,1.1465454E-1,0E0,0E0,0E0,0E0,1.9935913E0,0E0,0E0,0E0,5.438066E-1,0E0,0E0,5.323517E0,0E0,0E0,0E0,0E0],"parents":[2147483647,0,0,1,1,2,2,3,3,4,4,5,5,6,6,7,7,8,8,11,11,12,12,13,13,17,17,18,18,23,23,27,27,30,30],"right_children":[2,4,6,8,10,12,14,16,18,-1,-1,20,22,24,-1,-1,-1,26,28,-1,-1,-1,-1,30,-1,-1,-1,32,-1,-1,34,-1,-1,-1,-1],"split_conditions":[5.4343414E-1,5.434341E-1,3.1897777E-1,-2.2761972E0,6.0662496E-1,-1.3269213E0,5.2811635E-1,6.132324E-1,-2.2538807E0,-1.4599617E-1,3.3296245E-1,4.8242173E-1,1.0267118E-2,4.1485894E-1,-1.5248223E-1,2.2015756E-1,-1.3372631E-1,5.996676E-1,-2.5837498E0,-1.4111294E-1,3.3842036E-1,1.610642E-1,-1.5552373E-1,2.3182449E-1,-1.439462E-1,7.099503E-2,-9.835019E-2,-2.2558577E0,-1.5638055E-1,3.4732398E-1,7.5490427E-1,-1.2484759E-1,7.052258E-2,5.9514415E-1,3.6263722E-1],"split_indices":[66,66,15,16,81,50,23,62,50,0,0,109,101,110,0,0,0,71,63,0,0,0,0,53,0,0,0,39,0,0,12,0,0,0,0],"split_type":[0,0,0,0,0,0,0,0,0,0,0,0,0,0,0,0,0,0,0,0,0,0,0,0,0,0,0,0,0,0,0,0,0,0,0],"sum_hessian":[2.3848796E3,1.4434592E3,9.414205E2,1.4255592E3,1.789996E1,2.04765E2,7.3665546E2,6.839118E0,1.4187201E3,1.38965E1,4.0034604E0,1.8982038E1,1.8578296E2,7.0779987E2,2.8855581E1,1.004554E0,5.834564E0,2.7005184E0,1.4160197E3,8.935946E0,1.0046092E1,1.0560862E0,1.8472687E2,6.9904285E2,8.757039E0,1.002844E0,1.6976743E0,4.909351E0,1.4111102E3,6.269743E2,7.206854E1,3.901832E0,1.0075186E0,1.4088572E1,5.797997E1],"tree_param":{"num_deleted":"0","num_feature":"127","num_nodes":"35","size_leaf_vector":"1"}},{"base_weights":[4.5893997E-2,7.732556E-1,-1.5645517E-1,9.573929E-1,-2.3034196E-1,-4.8214033E-1,1.102309E0,-5.419734E-1,1.1624135E-1,-5.055776E-1,2.1327269E-1,9.90222E-3,1.1613581E0,-1.6568747E-1,-7.88228E-3,1.0195105E0,-4.960761E-1,-1.5530008E-1,6.391909E-2,1.134465E0,-3.877385E-1,1.2944292E0,8.882977E-1,1.5019715E0,7.695296E-2,4.576367E-2,-1.5434563E-1,3.8073534E-1,2.0487275E-2,3.572028E-1,-1.43217E-1,3.9190304E-1,-1.4585972E-1,1.6185129E-1,3.7610298E-1,3.6030915E-2,4.7214937E-1,3.210176E-1,-1.4895876E-1],"categories":[],"categories_nodes":[],"categories_segments":[],"categories_sizes":[],"default_left":[0,0,0,0,0,0,0,0,0,0,0,0,0,0,0,0,0,0,0,0,0,0,0,0,0,0,0,0,0,0,0,0,0,0,0,0,0,0,0],"id":23,"left_children":[1,3,-1,5,7,9,11,13,15,17,-1,19,21,-1,-1,23,25,-1,-1,27,29,31,33,35,37,-1,-1,-1,-1,-1,-1,-1,-1,-1,-1,-1,-1,-1,-1],"loss_changes":[1.00297095E3,1.9702515E2,0E0,1.8829291E2,1.7982273E1,2.6806946E0,5.275647E1,4.5127106E-1,4.4406082E1,8.2271004E-1,0E0,1.965005E1,2.7050049E1,0E0,0E0,1.4616032E1,6.5137196E-1,0E0,0E0,1.5609827E0,5.1649113E0,1.1658386E1,3.21364E1,1.9333572E0,7.3781056E0,0E0,0E0,0E0,0E0,0E0,0E0,0E0,0E0,0E0,0E0,0E0,0E0,0E0,0E0],"parents":[2147483647,0,0,1,1,3,3,4,4,5,5,6,6,7,7,8,8,9,9,11,11,12,12,15,15,16,16,19,19,20,20,21,21,22,22,23,23,24,24],"right_children":[2,4,-1,6,8,10,12,14,16,18,-1,20,22,-1,-1,24,26,-1,-1,28,30,32,34,36,38,-1,-1,-1,-1,-1,-1,-1,-1,-1,-1,-1,-1,-1,-1],"split_conditions":[5.434334E-1,4.1605046E-1,-1.5645517E-1,-3.57013E-1,6.185437E-1,1.9094586E0,-1.666425E0,1.2944427E0,9.6439767E-1,5.322175E-1,2.1327269E-1,-1.6409862E0,6.119288E-1,-1.6568747E-1,-7.88228E-3,-1.2051846E-1,6.5119934E-1,-1.5530008E-1,6.391909E-2,3.302539E-1,-6.907468E-1,1.02232E0,1.1527888E0,-7.44171E-1,2.1596321E-1,4.576367E-2,-1.5434563E-1,3.8073534E-1,2.0487275E-2,3.572028E-1,-1.43217E-1,3.9190304E-1,-1.4585972E-1,1.6185129E-1,3.7610298E-1,3.6030915E-2,4.7214937E-1,3.210176E-1,-1.4895876E-1],"split_indices":[0,14,0,41,56,51,12,6,11,2,0,30,39,0,0,3,14,0,0,44,13,35,42,54,13,0,0,0,0,0,0,0,0,0,0,0,0,0,0],"split_type":[0,0,0,0,0,0,0,0,0,0,0,0,0,0,0,0,0,0,0,0,0,0,0,0,0,0,0,0,0,0,0,0,0,0,0,0,0,0,0],"sum_hessian":[2.428212E3,1.0639618E3,1.3642501E3,8.9905225E2,1.6490958E2,8.2015854E1,8.170364E2,8.653637E1,7.837321E1,8.100083E1,1.0150192E0,4.195925E1,7.7507715E2,8.476935E1,1.7670256E0,3.1395166E1,4.6978043E1,7.9935776E1,1.0650549E0,1.047684E1,3.1482412E1,5.186044E2,2.5647275E2,2.0373304E1,1.1021861E1,1.0954452E0,4.58826E1,9.133034E0,1.3438061E0,1.0319856E0,3.0450426E1,5.1542206E2,3.18235E0,1.3248149E2,1.2399127E2,1.1391286E0,1.9234177E1,3.7178023E0,7.3040586E0],"tree_param":{"num_deleted":"0","num_feature":"127","num_nodes":"39","size_leaf_vector":"1"}},{"base_weights":[1.1940339E-2,-4.9887937E-1,8.308776E-1,-5.0895727E-1,3.7961864E-1,1.1330603E0,-4.8867434E-1,-2.6819032E-1,-5.191372E-1,3.334828E-1,-1.3886096E-1,1.156956E0,-1.436728E-1,-1.5620783E-1,1.0381033E0,-1.5359947E-1,5.2508694E-1,-5.204387E-1,-9.5541544E-2,-1.2810858E-1,1.1635028E0,5.120578E-2,3.8494584E-1,-2.6647872E-1,-1.5653655E-1,-1.2203819E-1,1.9858123E-1,-1.3860811E-1,1.1674109E0,-1.3808013E-1,2.0321701E-1,3.474916E-1,5.66868E-1],"categories":[],"categories_nodes":[],"categories_segments":[],"categories_sizes":[],"default_left":[1,1,0,0,0,0,0,0,1,0,0,0,0,0,0,0,0,0,0,0,0,0,0,0,0,0,0,0,0,0,0,0,0],"id":24,"left_children":[1,3,5,7,9,11,13,15,17,-1,-1,19,-1,-1,21,-1,-1,23,25,-1,27,-1,-1,29,-1,-1,-1,-1,31,-1,-1,-1,-1],"loss_changes":[1.0143397E3,1.3414032E1,3.7196417E2,3.4803772E0,1.1312384E1,2.9758728E1,9.059128E0,3.1396101E1,7.3080444E-1,0E0,0E0,8.247559E0,0E0,0E0,6.1281157E-1,0E0,0E0,3.4472656E-1,1.5804973E0,0E0,5.2696533E0,0E0,0E0,2.0503025E0,0E0,0E0,0E0,0E0,2.6975708E0,0E0,0E0,0E0,0E0],"parents":[2147483647,0,0,1,1,2,2,3,3,4,4,5,5,6,6,7,7,8,8,11,11,14,14,17,17,18,18,20,20,23,23,28,28],"right_children":[2,4,6,8,10,12,14,16,18,-1,-1,20,-1,-1,22,-1,-1,24,26,-1,28,-1,-1,30,-1,-1,-1,-1,32,-1,-1,-1,-1],"split_conditions":[7.3196E-1,7.414661E-1,6.819072E-1,-1.573955E0,-6.863076E-1,1.2320403E0,1.1430364E0,6.46797E-1,7.2933465E-1,3.334828E-1,-1.3886096E-1,-1.7094749E0,-1.436728E-1,-1.5620783E-1,-4.748736E-1,-1.5359947E-1,5.2508694E-1,-1.5651542E0,7.309359E-1,-1.2810858E-1,-1.676534E0,5.120578E-2,3.8494584E-1,5.4343367E-1,-1.5653655E-1,-1.2203819E-1,1.9858123E-1,-1.3860811E-1,6.242874E-1,-1.3808013E-1,2.0321701E-1,3.474916E-1,5.66868E-1],"split_indices":[119,107,77,53,17,26,122,119,119,0,0,17,0,0,8,0,0,41,95,0,11,0,0,66,0,0,0,0,77,0,0,0,0],"split_type":[0,0,0,0,0,0,0,0,0,0,0,0,0,0,0,0,0,0,0,0,0,0,0,0,0,0,0,0,0,0,0,0,0],"sum_hessian":[2.422749E3,1.4923024E3,9.3044666E2,1.4757931E3,1.6509264E1,7.571887E2,1.7325797E2,6.0976482E1,1.4148167E3,8.663019E0,7.846244E0,7.464064E2,1.0782323E1,1.7034459E2,2.9133744E0,5.5070927E1,5.9055557E0,1.4102551E3,4.561527E0,2.8079634E0,7.435984E2,1.0154512E0,1.8979232E0,8.504753E0,1.4017504E3,3.5611808E0,1.0003461E0,1.502324E0,7.4209607E2,7.48114E0,1.0236131E0,7.35427E2,6.6691046E0],"tree_param":{"num_deleted":"0","num_feature":"127","num_nodes":"33","size_leaf_vector":"1"}},{"base_weights":[2.3575913E-2,9.2529356E-1,-4.730039E-1,-1.5498121E-1,1.118309E0,-5.094885E-1,9.976596E-1,-1.4825793E-1,1.1539582E0,-1.958272E-1,-1.5615426E-1,-1.3762157E-1,3.9309725E-1,-9.77126E-2,1.157647E0,-1.536342E-1,1.2853795E0,3.262661E-2,1.1590785E0,2.8134722E-1,1.2309422E0,3.4807962E-1,9.98964E-2,3.1120527E-1,-1.2558441E-1],"categories":[],"categories_nodes":[],"categories_segments":[],"categories_sizes":[],"default_left":[0,0,0,0,0,0,0,0,0,0,0,0,0,0,0,0,0,0,0,0,0,0,0,0,0],"id":25,"left_children":[1,3,5,-1,7,9,11,-1,13,15,-1,-1,-1,-1,17,-1,19,-1,21,23,-1,-1,-1,-1,-1],"loss_changes":[1.0929519E3,2.4181976E2,8.496695E1,0E0,4.453412E1,5.2121887E0,1.81064E1,0E0,4.4628906E0,2.5855072E1,0E0,0E0,0E0,0E0,9.953613E-1,0E0,2.6425695E1,0E0,3.4484863E-1,4.805844E0,0E0,0E0,0E0,0E0,0E0],"parents":[2147483647,0,0,1,1,2,2,4,4,5,5,6,6,8,8,9,9,14,14,16,16,18,18,19,19],"right_children":[2,4,6,-1,8,10,12,-1,14,16,-1,-1,-1,-1,18,-1,20,-1,22,24,-1,-1,-1,-1,-1],"split_conditions":[-1.085067E0,5.1395607E-1,2.0993733E0,-1.5498121E-1,5.434328E-1,-9.869602E-1,1.7109185E0,-1.4825793E-1,-8.6709195E-1,3.765494E-2,-1.5615426E-1,-1.3762157E-1,3.9309725E-1,-9.77126E-2,3.7450626E-1,-1.536342E-1,5.582173E-1,3.262661E-2,6.3663393E-1,-3.8856605E-1,1.2309422E0,3.4807962E-1,9.98964E-2,3.1120527E-1,-1.2558441E-1],"split_indices":[2,81,1,0,66,2,13,0,23,35,0,0,0,0,101,0,69,0,126,17,0,0,0,0,0],"split_type":[0,0,0,0,0,0,0,0,0,0,0,0,0,0,0,0,0,0,0,0,0,0,0,0,0],"sum_hessian":[2.4388748E3,8.658152E2,1.5730594E3,1.02018936E2,7.6379626E2,1.5356171E3,3.7442432E1,1.6242548E1,7.475537E2,5.2783474E1,1.4828336E3,6.535012E0,3.090742E1,1.641979E0,7.4591174E2,4.4034836E1,8.748639E0,1.1214554E0,7.447903E2,7.261168E0,1.4874711E0,7.433178E2,1.4725E0,3.2591102E0,4.0020576E0],"tree_param":{"num_deleted":"0","num_feature":"127","num_nodes":"25","size_leaf_vector":"1"}},{"base_weights":[4.62499E-2,7.806263E-1,-1.5646313E-1,1.1016424E0,2.633503E-1,1.1734766E0,6.927921E-2,-2.1475165E-1,1.1365007E0,8.4500116E-1,1.2542088E0,-4.7060502E-1,3.534146E-1,-3.3962154E-1,4.155831E-1,1.2949439E0,1.7716321E-1,-3.1251684E-1,1.1744897E0,-1.8888249E-1,1.2639537E0,2.439665E-1,-1.6806906E-1,-4.3962237E-1,1.4686409E-1,2.9016507E0,1.4802112E-1,-1.6583052E-1,1.373121E0,-4.4370973E-1,3.6154887E-1,4.057165E-1,-1.5320586E-1,-1.4248326E-1,3.6383978E-1,-1.1715421E-1,6.579865E-2,3.974411E-1,3.6018768E-1,8.0553435E-2,-1.3794805E-1,3.1396425E-1,-1.3395093E-1,-8.9467615E-2,1.3322196E0,-1.2278227E-1,3.376911E-1,2.0353016E-2,4.3153715E-1,5.8972437E-2,-1.5220614E-1],"categories":[],"categories_nodes":[],"categories_segments":[],"categories_sizes":[],"default_left":[0,0,0,0,0,0,0,0,0,0,0,0,0,0,0,0,0,0,0,0,0,0,0,0,0,0,0,0,0,0,0,0,0,0,0,0,0,0,0,0,0,0,0,0,0,0,0,0,0,0,0],"id":26,"left_children":[1,3,-1,5,7,9,11,13,15,17,19,21,-1,23,25,27,29,31,33,35,37,-1,-1,39,41,43,45,-1,47,49,-1,-1,-1,-1,-1,-1,-1,-1,-1,-1,-1,-1,-1,-1,-1,-1,-1,-1,-1,-1,-1],"loss_changes":[1.0097738E3,1.7504803E2,0E0,4.8214355E1,1.6959111E2,1.5085144E1,2.6551819E1,2.0839735E1,2.1611832E1,4.7345703E1,7.0820312E0,3.8985634E0,0E0,1.0769386E1,2.8792559E1,1.8550095E1,1.4274219E1,9.956285E0,6.648117E0,4.259194E-1,2.7264404E-1,0E0,0E0,2.7384872E0,2.0896696E1,2.2082241E1,2.2643795E1,0E0,1.0004288E1,6.764219E-1,0E0,0E0,0E0,0E0,0E0,0E0,0E0,0E0,0E0,0E0,0E0,0E0,0E0,0E0,0E0,0E0,0E0,0E0,0E0,0E0,0E0],"parents":[2147483647,0,0,1,1,3,3,4,4,5,5,6,6,7,7,8,8,9,9,10,10,11,11,13,13,14,14,15,15,16,16,17,17,18,18,19,19,20,20,23,23,24,24,25,25,26,26,28,28,29,29],"right_children":[2,4,-1,6,8,10,12,14,16,18,20,22,-1,24,26,28,30,32,34,36,38,-1,-1,40,42,44,46,-1,48,50,-1,-1,-1,-1,-1,-1,-1,-1,-1,-1,-1,-1,-1,-1,-1,-1,-1,-1,-1,-1,-1],"split_conditions":[5.434334E-1,-6.092041E-1,-1.5646313E-1,-3.876559E-1,9.7415614E-1,-2.8351024E-1,3.424016E-1,1.17067E0,1.1527888E0,3.7251025E-1,-1.2053064E0,-3.232037E-1,3.534146E-1,5.481687E-1,-1.4415812E-1,-7.7986306E-1,-1.7561903E-2,-1.9431993E0,3.769164E-1,1.3570406E0,3.504528E-1,2.439665E-1,-1.6806906E-1,-4.748736E-1,-1.4329672E-1,-1.306936E-1,-8.552448E-2,-1.6583052E-1,-3.3777997E-1,9.403845E-1,3.6154887E-1,4.057165E-1,-1.5320586E-1,-1.4248326E-1,3.6383978E-1,-1.1715421E-1,6.579865E-2,3.974411E-1,3.6018768E-1,8.0553435E-2,-1.3794805E-1,3.1396425E-1,-1.3395093E-1,-8.9467615E-2,1.3322196E0,-1.2278227E-1,3.376911E-1,2.0353016E-2,4.3153715E-1,5.8972437E-2,-1.5220614E-1],"split_indices":[0,6,0,15,63,4,14,2,42,3,3,41,0,63,14,35,14,10,5,8,53,0,0,8,13,52,3,0,4,54,0,0,0,0,0,0,0,0,0,0,0,0,0,0,0,0,0,0,0,0,0],"split_type":[0,0,0,0,0,0,0,0,0,0,0,0,0,0,0,0,0,0,0,0,0,0,0,0,0,0,0,0,0,0,0,0,0,0,0,0,0,0,0,0,0,0,0,0,0,0,0,0,0,0,0],"sum_hessian":[2.419693E3,1.054911E3,1.3647821E3,6.502456E2,4.046654E2,6.0781573E2,4.2429863E1,2.619734E2,1.4269202E2,1.221778E2,4.8563794E2,2.8922447E1,1.3507416E1,2.1904214E2,4.2931248E1,1.2216547E2,2.0526552E1,2.708338E1,9.509442E1,3.1340744E0,4.8250388E2,1.3605013E0,2.7561947E1,1.8177354E2,3.7268604E1,3.2149136E0,3.971633E1,4.7126007E0,1.17452866E2,1.3151761E1,7.374791E0,2.26125E0,2.482213E1,1.8998038E0,9.319462E1,2.126879E0,1.0071955E0,2.3590768E2,2.4659619E2,4.7015624E0,1.7707199E2,1.4507737E1,2.2760866E1,1.3059559E0,1.9089578E0,2.5666409E1,1.4049925E1,5.6960626E0,1.11756805E2,1.0002447E0,1.2151516E1],"tree_param":{"num_deleted":"0","num_feature":"127","num_nodes":"51","size_leaf_vector":"1"}},{"base_weights":[7.169091E-3,-5.0778097E-1,9.4566315E-1,-1.5655556E-1,-7.690061E-3,1.132217E0,-4.9723592E-1,1.2797452E0,-1.5181834E-1,-1.4436364E-1,1.1548747E0,-1.5517078E-1,1.1699013E-1,-1.0518948E-1,4.860879E-1,4.302007E-2,1.1562275E0,4.0124938E-1,3.416717E-1],"categories":[],"categories_nodes":[],"categories_segments":[],"categories_sizes":[],"default_left":[0,0,0,0,0,0,0,0,0,0,0,0,0,0,0,0,0,0,0],"id":27,"left_children":[1,3,5,-1,7,9,11,13,-1,-1,15,-1,-1,-1,-1,-1,17,-1,-1],"loss_changes":[1.1703461E3,1.0999329E1,2.3151581E2,0E0,2.8755913E1,2.8341064E1,1.9570427E0,7.513443E0,0E0,0E0,8.602295E-1,0E0,0E0,0E0,0E0,0E0,8.2751465E-1,0E0,0E0],"parents":[2147483647,0,0,1,1,2,2,4,4,5,5,6,6,7,7,10,10,16,16],"right_children":[2,4,6,-1,8,10,12,14,-1,-1,16,-1,-1,-1,-1,-1,18,-1,-1],"split_conditions":[1.3040886E0,1.1545336E0,1.0110377E0,-1.5655556E-1,-1.2871009E-1,5.434332E-1,5.434346E-1,1.303874E-1,-1.5181834E-1,-1.4436364E-1,9.0146506E-1,-1.5517078E-1,1.1699013E-1,-1.0518948E-1,4.860879E-1,4.302007E-2,1.5477341E0,4.0124938E-1,3.416717E-1],"split_indices":[17,17,38,0,50,66,66,64,0,0,11,0,0,0,0,0,8,0,0],"split_type":[0,0,0,0,0,0,0,0,0,0,0,0,0,0,0,0,0,0,0],"sum_hessian":[2.4196917E3,1.5626998E3,8.569917E2,1.5198916E3,4.280827E1,7.590665E2,9.792515E1,1.1509102E1,3.1299168E1,1.0231778E1,7.488348E2,9.617412E1,1.751029E0,1.9834927E0,9.525609E0,1.1431291E0,7.4769165E2,5.8568253E1,6.891234E2],"tree_param":{"num_deleted":"0","num_feature":"127","num_nodes":"19","size_leaf_vector":"1"}},{"base_weights":[8.1365916E-4,-4.7713128E-1,9.973781E-1,4.275528E-1,-5.196698E-1,1.1499586E0,-5.0311685E-1,-1.518507E-1,3.727156E-1,-5.2074397E-1,1.6442925E-1,1.1630784E0,-1.3273735E-1,4.0796682E-2,-1.5427668E-1,6.444858E-3,-1.5639758E-1,4.986267E-1,3.4458202E-1],"categories":[],"categories_nodes":[],"categories_segments":[],"categories_sizes":[],"default_left":[0,0,0,0,0,0,0,0,0,0,0,0,0,0,0,0,0,0,0],"id":28,"left_children":[1,3,5,7,9,11,13,-1,-1,15,-1,17,-1,-1,-1,-1,-1,-1,-1],"loss_changes":[1.1471808E3,6.2867126E1,1.7931476E2,5.666524E1,2.0691528E0,1.5325867E1,5.878544E-1,0E0,0E0,5.010071E-1,0E0,3.1707764E0,0E0,0E0,0E0,0E0,0E0,0E0,0E0],"parents":[2147483647,0,0,1,1,2,2,3,3,4,4,5,5,6,6,9,9,11,11],"right_children":[2,4,6,8,10,12,14,-1,-1,16,-1,18,-1,-1,-1,-1,-1,-1,-1],"split_conditions":[8.298585E-1,-1.8607996E0,7.507822E-1,-8.013981E-3,5.434362E-1,-1.7033604E-1,-1.271216E0,-1.518507E-1,3.727156E-1,-2.0576808E0,1.6442925E-1,8.401843E-1,-1.3273735E-1,4.0796682E-2,-1.5427668E-1,6.444858E-3,-1.5639758E-1,4.986267E-1,3.4458202E-1],"split_indices":[65,62,101,14,66,6,51,0,0,38,0,80,0,0,0,0,0,0,0],"split_type":[0,0,0,0,0,0,0,0,0,0,0,0,0,0,0,0,0,0,0],"sum_hessian":[2.406512E3,1.6268215E3,7.7969037E2,7.2651955E1,1.5541697E3,7.079362E2,7.175414E1,3.4032593E1,3.8619358E1,1.5531195E3,1.0501348E0,7.0241864E2,5.5175834E0,1.0371466E0,7.0716995E1,1.624623E0,1.5514949E3,1.6588003E1,6.858306E2],"tree_param":{"num_deleted":"0","num_feature":"127","num_nodes":"19","size_leaf_vector":"1"}},{"base_weights":[-3.9922336E-1,-4.7628695E-1,3.0043203E-1,-1.7440832E-1,-5.15013E-1,1.0462759E0,-5.0651884E-1,-1.5312713E-1,6.424663E-1,6.990545E-1,-5.187522E-1,1.2256902E0,-1.4251992E-1,-1.4652455E-1,-1.5466408E-1,1.2579024E0,-3.693562E-1,5.0655067E-1,-1.0906361E-1,-3.2351622E-1,-1.5637675E-1,1.2632483E0,-1.0137575E-1,-9.6716054E-2,4.686348E-2,4.216702E-1,-1.151786E-1,2.5510216E-1,-1.4859794E-1,3.4264216E-1,-1.4875771E-1,1.2100258E-1,3.8181284E-1,-1.10739194E-1,3.568525E-1],"categories":[],"categories_nodes":[],"categories_segments":[],"categories_sizes":[],"default_left":[0,0,0,0,0,0,0,0,0,0,0,0,0,0,0,0,0,0,0,0,0,0,0,0,0,0,0,0,0,0,0,0,0,0,0],"id":29,"left_children":[1,3,5,7,9,11,13,-1,15,17,19,21,-1,23,-1,25,27,-1,-1,29,-1,31,-1,-1,-1,-1,-1,33,-1,-1,-1,-1,-1,-1,-1],"loss_changes":[1.0170926E2,1.9751526E1,1.1338438E2,5.3709557E1,7.189087E0,2.7268822E1,2.1936798E-1,0E0,3.6037148E1,5.916119E0,5.643616E-1,5.579254E0,0E0,2.429286E-1,0E0,9.206207E0,1.8866837E0,0E0,0E0,6.0282893E0,0E0,1.8544006E-1,0E0,0E0,0E0,0E0,0E0,3.0151875E0,0E0,0E0,0E0,0E0,0E0,0E0,0E0],"parents":[2147483647,0,0,1,1,2,2,3,3,4,4,5,5,6,6,8,8,9,9,10,10,11,11,13,13,15,15,16,16,19,19,21,21,27,27],"right_children":[2,4,6,8,10,12,14,-1,16,18,20,22,-1,24,-1,26,28,-1,-1,30,-1,32,-1,-1,-1,-1,-1,34,-1,-1,-1,-1,-1,-1,-1],"split_conditions":[1.2956616E0,-1.2843188E0,-7.249091E-1,3.432125E-1,-2.058396E0,-3.2830376E-2,-6.5680647E-1,-1.5312713E-1,5.2287006E-1,5.434334E-1,-1.6488516E0,5.434334E-1,-1.4251992E-1,1.4752226E0,-1.5466408E-1,5.434334E-1,7.337752E-1,5.0655067E-1,-1.0906361E-1,5.434334E-1,-1.5637675E-1,5.460121E-1,-1.0137575E-1,-9.6716054E-2,4.686348E-2,4.216702E-1,-1.151786E-1,7.671839E-1,-1.4859794E-1,3.4264216E-1,-1.4875771E-1,1.2100258E-1,3.8181284E-1,-1.10739194E-1,3.568525E-1],"split_indices":[18,3,3,54,44,2,3,0,51,0,44,0,0,36,0,0,51,0,0,0,0,54,0,0,0,0,0,36,0,0,0,0,0,0,0],"split_type":[0,0,0,0,0,0,0,0,0,0,0,0,0,0,0,0,0,0,0,0,0,0,0,0,0,0,0,0,0,0,0,0,0,0,0],"sum_hessian":[1.8827169E3,1.6962073E3,1.8650963E2,1.93481E2,1.5027263E3,9.677054E1,8.973909E1,1.3735583E2,5.612517E1,4.043121E0,1.4986831E3,8.673596E1,1.003458E1,2.616989E0,8.71221E1,3.474717E1,2.1378002E1,1.7886121E0,2.254509E0,2.0623314E1,1.4780598E3,8.4889015E1,1.8469493E0,1.6143105E0,1.0026785E0,3.2011944E1,2.735226E0,3.416529E0,1.7961473E1,1.5778279E0,1.9045486E1,1.3986486E0,8.3490364E1,2.410886E0,1.0056428E0],"tree_param":{"num_deleted":"0","num_feature":"127","num_nodes":"35","size_leaf_vector":"1"}},{"base_weights":[3.0653518E-2,-3.9922312E-1,6.3492745E-1,3.443975E-1,-4.9619606E-1,8.5360754E-1,-4.8045802E-1,8.4971654E-1,-3.9935064E-1,1.5444852E-1,-5.1454943E-1,9.0333325E-1,-4.810671E-1,4.418454E-1,-5.0710857E-1,-1.440908E-1,1.0464174E0,-4.8367527E-1,1.0244907E0,3.8257265E-1,-1.4758383E-1,-5.154801E-1,6.439076E-2,-3.685632E-1,9.129828E-1,-1.5197018E-1,2.7616601E-2,-1.131677E-1,4.9191397E-1,5.4943405E-2,-1.5420571E-1,2.838674E-1,6.273349E-1,-1.5276644E-1,1.23043664E-1,4.0132412E-1,8.694951E-2,-2.521799E-1,-1.5490723E-1,3.0532626E-2,-1.445158E-1,-9.83057E-2,9.15684E-1,-1.2075291E-1,6.313462E-2,-8.7267414E-2,2.7536127E-1],"categories":[],"categories_nodes":[],"categories_segments":[],"categories_sizes":[],"default_left":[1,0,0,0,0,0,0,0,0,0,0,0,0,0,0,0,0,0,0,0,0,0,0,0,0,0,0,0,0,0,0,0,0,0,0,0,0,0,0,0,0,0,0,0,0,0,0],"id":30,"left_children":[1,3,5,7,9,11,13,15,17,19,21,23,25,27,29,-1,31,33,35,-1,-1,37,-1,39,41,-1,-1,-1,-1,-1,-1,-1,-1,-1,-1,-1,-1,43,-1,-1,-1,-1,45,-1,-1,-1,-1],"loss_changes":[5.498648E2,8.936694E1,2.1502649E2,5.4190186E1,1.3151123E1,4.928241E1,3.7849922E0,2.290681E1,7.5370026E0,2.2940893E1,8.33313E-1,9.049622E0,4.4253397E-1,5.1347017E0,7.679825E-1,0E0,5.8631897E0,1.4886246E0,4.407227E-1,0E0,0E0,1.1550903E-1,0E0,3.7143987E-1,2.6622314E0,0E0,0E0,0E0,0E0,0E0,0E0,0E0,0E0,0E0,0E0,0E0,0E0,4.6632656E-1,0E0,0E0,0E0,0E0,2.1235962E0,0E0,0E0,0E0,0E0],"parents":[2147483647,0,0,1,1,2,2,3,3,4,4,5,5,6,6,7,7,8,8,9,9,10,10,11,11,12,12,13,13,14,14,16,16,17,17,18,18,21,21,23,23,24,24,37,37,42,42],"right_children":[2,4,6,8,10,12,14,16,18,20,22,24,26,28,30,-1,32,34,36,-1,-1,38,-1,40,42,-1,-1,-1,-1,-1,-1,-1,-1,-1,-1,-1,-1,44,-1,-1,-1,-1,46,-1,-1,-1,-1],"split_conditions":[6.721445E-1,-1.4317132E0,-2.2166231E-1,-5.428784E-1,-1.524286E0,2.271276E-1,-3.5151345E-1,4.9594408E-1,9.251086E-1,-6.7629343E-1,9.484323E-1,4.963321E-1,6.168065E-1,-9.9794775E-1,4.6970877E-1,-1.440908E-1,-1.4086742E0,4.6345723E-1,8.480663E-1,3.8257265E-1,-1.4758383E-1,-1.4820704E0,6.439076E-2,-7.5984234E-1,-1.2961057E0,-1.5197018E-1,2.7616601E-2,-1.131677E-1,4.9191397E-1,5.4943405E-2,-1.5420571E-1,2.838674E-1,6.273349E-1,-1.5276644E-1,1.23043664E-1,4.0132412E-1,8.694951E-2,5.680684E-1,-1.5490723E-1,3.0532626E-2,-1.445158E-1,-9.83057E-2,-1.1330342E0,-1.2075291E-1,6.313462E-2,-8.7267414E-2,2.7536127E-1],"split_indices":[118,28,3,6,17,61,25,81,60,6,64,114,117,7,69,0,31,85,42,0,0,17,0,39,2,0,0,0,0,0,0,0,0,0,0,0,0,75,0,0,0,0,13,0,0,0,0],"split_type":[0,0,0,0,0,0,0,0,0,0,0,0,0,0,0,0,0,0,0,0,0,0,0,0,0,0,0,0,0,0,0,0,0,0,0,0,0,0,0,0,0,0,0,0,0,0,0],"sum_hessian":[2.1148164E3,1.2359258E3,8.7889044E2,1.422851E2,1.0936407E3,7.350189E2,1.4387152E2,8.463781E1,5.7647293E1,2.9799604E1,1.0638412E3,7.089296E2,2.6089277E1,3.6029775E0,1.4026855E2,1.0718878E1,7.391893E1,5.5047497E1,2.5997941E0,1.05441265E1,1.9255478E1,1.0627777E3,1.0634092E0,5.0579166E0,7.0387177E2,2.5089106E1,1.000171E0,2.5466974E0,1.0562801E0,1.1375873E0,1.3913097E2,6.918903E1,4.729898E0,5.393624E1,1.1112549E0,1.2471179E0,1.3526762E0,4.4872193E0,1.0582905E3,1.0003773E0,4.057539E0,1.2677518E0,7.02604E2,3.4847958E0,1.0024233E0,1.0322982E0,7.015717E2],"tree_param":{"num_deleted":"0","num_feature":"127","num_nodes":"47","size_leaf_vector":"1"}},{"base_weights":[1.2224069E-2,-4.812347E-1,7.050846E-1,-5.081377E-1,3.3393475E-1,-1.5372075E-1,8.616724E-1,-1.5410413E-1,-2.909388E-1,1.1610711E0,-3.2702765E-1,8.9004225E-1,-1.4723048E-1,-1.4980431E-1,7.529704E-1,1.3069311E0,-9.452898E-2,-1.5056969E-1,2.3800147E-1,-3.060822E-1,9.0343463E-1,3.1224263E-1,-7.946682E-2,5.685874E-1,3.081369E-1,1.2330831E-1,-1.3650589E-1,-2.7836686E-1,9.104178E-1,4.1135203E-2,-1.23565055E-1,-1.0606319E-1,2.7419552E-1],"categories":[],"categories_nodes":[],"categories_segments":[],"categories_sizes":[],"default_left":[0,0,0,0,0,0,0,0,0,0,0,0,0,0,0,0,0,0,0,0,0,0,0,0,0,0,0,0,0,0,0,0,0],"id":31,"left_children":[1,3,5,7,9,-1,11,-1,13,15,17,19,-1,-1,21,23,-1,-1,-1,25,27,-1,-1,-1,-1,-1,-1,29,31,-1,-1,-1,-1],"loss_changes":[7.133987E2,2.689569E1,1.6590552E2,1.2712708E0,2.1995422E1,0E0,2.9957092E1,0E0,7.266617E0,4.2403603E0,4.8567E0,1.2353821E1,0E0,0E0,1.9367719E0,7.4933624E-1,0E0,0E0,0E0,1.1584045E0,6.4086914E0,0E0,0E0,0E0,0E0,0E0,0E0,3.4200364E-1,3.6672363E0,0E0,0E0,0E0,0E0],"parents":[2147483647,0,0,1,1,2,2,3,3,4,4,6,6,8,8,9,9,10,10,11,11,14,14,15,15,19,19,20,20,27,27,28,28],"right_children":[2,4,6,8,10,-1,12,-1,14,16,18,20,-1,-1,22,24,-1,-1,-1,26,28,-1,-1,-1,-1,-1,-1,30,32,-1,-1,-1,-1],"split_conditions":[8.8659286E-1,6.9709873E-1,4.944429E-1,8.106059E-1,6.352081E-1,-1.5372075E-1,7.675219E-1,-1.5410413E-1,5.8155835E-1,-6.6869414E-1,1.4938799E0,5.5231756E-1,-1.4723048E-1,-1.4980431E-1,5.434321E-1,7.2079945E-1,-9.452898E-2,-1.5056969E-1,2.3800147E-1,4.8242173E-1,2.5715587E-1,3.1224263E-1,-7.946682E-2,5.685874E-1,3.081369E-1,1.2330831E-1,-1.3650589E-1,-4.763507E-2,-7.623286E-2,4.1135203E-2,-1.23565055E-1,-1.0606319E-1,2.7419552E-1],"split_indices":[9,84,64,9,114,0,112,0,69,1,18,72,0,0,66,84,0,0,0,109,89,0,0,0,0,0,0,38,24,0,0,0,0],"split_type":[0,0,0,0,0,0,0,0,0,0,0,0,0,0,0,0,0,0,0,0,0,0,0,0,0,0,0,0,0,0,0,0,0],"sum_hessian":[2.0845903E3,1.2176671E3,8.669232E2,1.179129E3,3.853811E1,9.8534485E1,7.6838873E2,1.1484567E3,3.06723E1,1.6781235E1,2.1756876E1,7.5293646E2,1.5452269E1,2.6002707E1,4.6695943E0,1.5376526E1,1.404709E0,1.929695E1,2.4599252E0,8.094924E0,7.4484155E2,3.6226163E0,1.0469779E0,3.0950165E0,1.2281509E1,1.0894864E0,7.0054374E0,4.1470423E0,7.4069446E2,1.0019991E0,3.145043E0,1.8084413E0,7.3888605E2],"tree_param":{"num_deleted":"0","num_feature":"127","num_nodes":"33","size_leaf_vector":"1"}},{"base_weights":[3.2235794E-2,5.954531E-1,-1.5500449E-1,7.107472E-1,-3.752914E-1,2.2292073E-1,8.475363E-1,2.6852608E-1,-4.7635552E-1,8.493242E-1,-4.9437633E-1,-3.357261E-1,8.841462E-1,9.556483E-1,-1.3740933E-1,-8.987324E-2,-1.5383852E-1,-1.2623774E-1,8.96501E-1,9.152722E-2,-5.1279765E-1,2.7518183E-1,-1.576763E-1,8.9552957E-1,-1.3691616E-1,3.6718722E-2,3.1531388E-1,-1.3355215E-1,1.7819683E-1,1.8265958E-1,-1.5156572E-1,2.7725047E-1,-5.0832458E-2,-3.2966209E-4,-1.5560597E-1,2.9962018E-1,2.3199849E-1],"categories":[],"categories_nodes":[],"categories_segments":[],"categories_sizes":[],"default_left":[0,0,0,0,0,0,0,0,0,0,0,0,0,0,0,0,0,0,0,0,0,0,0,0,0,0,0,0,0,0,0,0,0,0,0,0,0],"id":32,"left_children":[1,3,-1,5,7,9,11,13,15,17,19,21,23,25,-1,27,-1,29,31,-1,33,-1,-1,35,-1,-1,-1,-1,-1,-1,-1,-1,-1,-1,-1,-1,-1],"loss_changes":[6.591161E2,1.1803534E2,0E0,6.2595795E1,7.438902E0,9.3612015E1,3.211371E1,8.367772E0,1.3266983E0,5.22583E0,1.5897236E0,5.8983793E0,1.1284546E1,5.460534E-1,0E0,2.5997345E0,0E0,1.9793701E0,3.2852554E0,0E0,2.8720665E-1,0E0,0E0,8.144653E0,0E0,0E0,0E0,0E0,0E0,0E0,0E0,0E0,0E0,0E0,0E0,0E0,0E0],"parents":[2147483647,0,0,1,1,3,3,4,4,5,5,6,6,7,7,8,8,9,9,10,10,11,11,12,12,13,13,15,15,17,17,18,18,20,20,23,23],"right_children":[2,4,-1,6,8,10,12,14,16,18,20,22,24,26,-1,28,-1,30,32,-1,34,-1,-1,36,-1,-1,-1,-1,-1,-1,-1,-1,-1,-1,-1,-1,-1],"split_conditions":[5.434334E-1,4.9800187E-1,-1.5500449E-1,-9.1504264E-1,-9.556752E-1,-7.07321E-2,-1.4598314E0,6.754221E-1,5.547532E-1,-9.325439E-1,-8.510383E-1,-1.4102689E0,1.046485E0,-9.9314094E-1,-1.3740933E-1,1.0149714E0,-1.5383852E-1,-1.4278563E0,9.4519026E-4,9.152722E-2,-1.3673148E0,2.7518183E-1,-1.576763E-1,-2.9139772E-1,-1.3691616E-1,3.6718722E-2,3.1531388E-1,-1.3355215E-1,1.7819683E-1,1.8265958E-1,-1.5156572E-1,2.7725047E-1,-5.0832458E-2,-3.2966209E-4,-1.5560597E-1,2.9962018E-1,2.3199849E-1],"split_indices":[0,54,0,26,20,17,6,57,54,59,20,16,63,44,0,30,0,3,41,0,3,0,0,20,0,0,0,0,0,0,0,0,0,0,0,0,0],"split_type":[0,0,0,0,0,0,0,0,0,0,0,0,0,0,0,0,0,0,0,0,0,0,0,0,0,0,0,0,0,0,0,0,0,0,0,0,0],"sum_hessian":[2.129964E3,1.0512466E3,1.0787174E3,9.3988544E2,1.1136118E2,2.0640823E2,7.334772E2,1.4884458E1,9.647673E1,1.1008703E2,9.632121E1,2.1767374E1,7.1170984E2,7.487778E0,7.3966794E0,8.61123E0,8.78655E1,5.000782E0,1.0508624E2,1.8189458E0,9.4502266E1,2.3601558E0,1.9407219E1,7.0604626E2,5.663538E0,1.0037274E0,6.4840508E0,5.896655E0,2.7145746E0,1.4947873E0,3.5059948E0,1.02557304E2,2.528938E0,1.0886978E0,9.341357E1,3.7888687E2,3.271594E2],"tree_param":{"num_deleted":"0","num_feature":"127","num_nodes":"37","size_leaf_vector":"1"}},{"base_weights":[1.8104875E-2,-4.9038312E-1,3.543397E-1,-5.145627E-1,-1.3305978E-1,6.5900785E-1,-4.1882455E-1,-1.5508094E-1,-3.5888046E-1,3.117644E-1,-1.514308E-1,-4.7244394E-1,8.554489E-1,-5.291025E-3,-4.8616785E-1,-1.4429179E-1,1.9418104E-1,-1.539027E-1,7.7358377E-1,8.959759E-1,-4.6830174E-1,-1.5027496E-1,8.3026195E-1,-5.095346E-1,-5.850484E-2,3.888321E-1,-8.8921934E-2,-1.4224705E-1,9.1610044E-1,-1.5014195E-1,3.8217038E-2,7.739027E-2,2.5893784E-1,-2.2005759E-1,-1.5364003E-1,-1.4272378E-1,8.82058E-1,-6.1589498E-2,2.7844808E-1,-1.0888666E-1,3.8376182E-2,-8.899281E-2,3.903027E-1],"categories":[],"categories_nodes":[],"categories_segments":[],"categories_sizes":[],"default_left":[0,0,0,0,0,0,0,0,0,0,0,0,0,0,0,0,0,0,0,0,0,0,0,0,0,0,0,0,0,0,0,0,0,0,0,0,0,0,0,0,0,0,0],"id":33,"left_children":[1,3,5,7,9,11,13,-1,15,-1,-1,17,19,21,23,-1,-1,-1,25,27,29,-1,31,33,35,-1,-1,-1,37,-1,-1,-1,-1,39,-1,-1,41,-1,-1,-1,-1,-1,-1],"loss_changes":[3.569266E2,7.1111603E0,2.9628854E2,1.0197449E-1,2.4061949E1,2.008454E2,9.906635E0,0E0,2.1483607E0,0E0,0E0,7.172638E0,4.1661987E1,2.147041E1,3.0279007E0,0E0,0E0,0E0,2.9701715E0,2.1011536E1,5.139899E-1,0E0,1.404419E-1,1.0547638E-1,7.084027E0,0E0,0E0,0E0,1.0141541E1,0E0,0E0,0E0,0E0,2.6192957E-1,0E0,0E0,3.1358862E0,0E0,0E0,0E0,0E0,0E0,0E0],"parents":[2147483647,0,0,1,1,2,2,3,3,4,4,5,5,6,6,8,8,11,11,12,12,13,13,14,14,18,18,19,19,20,20,22,22,23,23,24,24,28,28,33,33,36,36],"right_children":[2,4,6,8,10,12,14,-1,16,-1,-1,18,20,22,24,-1,-1,-1,26,28,30,-1,32,34,36,-1,-1,-1,38,-1,-1,-1,-1,40,-1,-1,42,-1,-1,-1,-1,-1,-1],"split_conditions":[5.26289E-1,4.9039072E-1,5.0199664E-1,4.8202258E-1,1.6673374E-1,-9.298369E-1,5.458969E-1,-1.5508094E-1,4.4246712E-1,3.117644E-1,-1.514308E-1,7.71571E-1,2.8362435E-1,4.2567337E-1,1.2793756E0,-1.4429179E-1,1.9418104E-1,-1.539027E-1,-5.388831E-1,3.3788446E-1,9.227991E-1,-1.5027496E-1,8.0535704E-1,5.4838187E-1,1.3001573E0,3.888321E-1,-8.8921934E-2,-1.4224705E-1,5.4343265E-1,-1.5014195E-1,3.8217038E-2,7.739027E-2,2.5893784E-1,8.2107216E-1,-1.5364003E-1,-1.4272378E-1,5.434327E-1,-6.1589498E-2,2.7844808E-1,-1.0888666E-1,3.8376182E-2,-8.899281E-2,3.903027E-1],"split_indices":[71,71,89,71,89,5,89,0,2,0,0,18,26,5,13,0,0,0,1,101,68,0,95,89,47,0,0,0,66,0,0,0,0,74,0,0,66,0,0,0,0,0,0],"split_type":[0,0,0,0,0,0,0,0,0,0,0,0,0,0,0,0,0,0,0,0,0,0,0,0,0,0,0,0,0,0,0,0,0,0,0,0,0,0,0,0,0,0,0],"sum_hessian":[2.0856233E3,8.299823E2,1.255641E3,7.7696594E2,5.301635E1,9.00818E2,3.5482297E2,7.630116E2,1.3954382E1,1.23312025E1,4.0685146E1,1.3305412E2,7.677639E2,4.9841415E1,3.0498157E2,1.29098E1,1.0445824E0,1.2942879E2,3.6253295E0,7.452704E2,2.2493496E1,3.1535803E1,1.8305614E1,2.889997E2,1.5981874E1,2.293827E0,1.3315024E0,1.0461545E1,7.3480884E2,2.1492596E1,1.0009007E0,1.4747047E0,1.683091E1,3.333805E0,2.8566586E2,1.1413116E1,4.568758E0,7.6477337E0,7.2716113E2,2.3327966E0,1.0010085E0,1.2746167E0,3.2941413E0],"tree_param":{"num_deleted":"0","num_feature":"127","num_nodes":"43","size_leaf_vector":"1"}},{"base_weights":[3.1219661E-2,-4.6956307E-1,4.194934E-1,-4.996548E-1,7.162685E-1,6.056378E-1,-4.1130137E-1,-5.128115E-1,-4.712089E-2,-1.2929067E-1,1.0072535E0,8.0098724E-1,-2.9989865E-1,-5.0683695E-1,1.9659433E-1,-1.5508388E-1,-3.9380866E-1,9.2614675E-1,-1.4706314E-1,3.252064E-1,-5.2755285E-4,-4.86907E-1,8.6640525E-1,-4.8136592E-1,2.8841722E-1,-1.5450186E-1,1.1496544E-1,-1.4587305E-1,9.540545E-1,3.7917402E-1,-1.5021841E-1,3.11366E-1,1.9842656E-2,2.2636374E-2,-1.5159243E-1,-1.4296733E-1,8.824196E-1,-5.117472E-1,3.893828E-2,-8.5554816E-2,1.4704339E-1,-8.738996E-2,3.2726353E-1,2.7200246E-1,5.919368E-2,3.786608E-2,-1.5518034E-1,4.3401694E-1,-1.349275E-1],"categories":[],"categories_nodes":[],